-2.257624051361230011e-01,6.284350168824545113e-01,2.007585480749199403e-02,-1.029571988990964949e-02,-1.072034295446708113e-01,3.994119989021960651e-03,1.156475345083195772e-01,4.365622837311717436e-02,1.669619271623348500e-01,2.465206795844730389e-02,4.388770681436267827e-03,-1.199268852411511516e-01,1.048653364544438055e-01,2.224857133636079232e-01,1.996516859637010588e-01,-9.919331232246351993e-02,-1.046757050081110613e-01,-1.015300347442128354e-01,-2.376069269935700279e-01,-8.251498163580907319e-02,-1.723357505390145372e-01,-3.052460986780531349e-01,-9.176978979888460175e-02,-1.356614309980554156e-01,-7.323053472557368437e-02,1.303080632335286149e-01,5.201033098113999609e-02,1.741366736909033819e-01,1.024710544009777707e-02,-6.452114356192407280e-03,1.578642559601703133e-01,8.692989995839049688e-02,1.290217213806701402e-01,2.345987089338956444e-02,-7.153409982084237007e-02,5.919371161287693799e-03,-1.699703274864044003e-02,1.018277928400627107e-02,-2.461420057518882709e-01,-2.668906031187518596e-02,7.427356642065910397e-03,-1.795113932613674745e-02,3.533120008920099392e-02,-2.633309388625939412e-02,5.973932111347525498e-02,1.812191723467496129e-01,2.552017070231005560e-02,3.382375810331945259e-02,-1.965462720720227274e-03,9.121223242200789116e-02,3.095532504219587477e-01
-4.224767459870494291e-01,4.052570682516818401e-01,-2.737785709770306723e-03,-1.938794109693514622e-02,-2.443557260708426881e-01,-1.351804346078032959e-01,1.209308009923415195e-01,3.279956149959415423e-01,4.275518194175756403e-02,3.048447699126245400e-02,8.334395372745492803e-02,2.968862826786853870e-01,1.764175887050122848e-01,2.579206667427512700e-01,4.361035627344344023e-01,1.643743968715272452e-01,2.927652246690466697e-02,-1.664980973739623241e-02,1.624041502595171826e-01,-6.938089323518942253e-02,6.369582275493552992e-02,-1.164319200510940400e-01,-1.938755119085294465e-01,1.061409337436896999e-01,-1.156960303196772899e-01,2.225802854581772905e-01,1.890140949201962045e-02,3.617953220139287218e-01,6.983892123194768153e-02,-3.144667710825015117e-02,3.471856061055000886e-01,1.648671308800929713e-01,5.626277816675508830e-02,8.530381835165096183e-02,2.826167529862215200e-01,2.608446805961595755e-02,4.090942082482430797e-03,1.040923426263286183e-01,8.221038222077148294e-02,1.648348367680142063e-02,1.267408067609160638e-01,9.556879917727890972e-02,1.101896736931102933e-01,-3.275406197551254672e-02,9.389559137150731150e-02,2.640542281471935926e-01,8.132899552248729069e-02,2.419107079100077731e-02,-2.478167325511622041e-02,5.991590121407516095e-02,2.829143374796348476e-01
3.922500531906067955e-01,-5.788920451037701254e-01,-3.192261530299500983e-03,2.183703280592834764e-02,2.653010652610631737e-01,1.269217183976801278e-01,-1.528856105305873014e-01,-3.261267746263692424e-01,-9.404953196414900241e-02,-3.516023011775851886e-02,-8.299124148354679320e-02,-2.510521262517873553e-01,-2.038835422462669800e-01,-3.191405376693777773e-01,-4.792918396128526548e-01,-1.312348653319654890e-01,3.212005397037302323e-03,4.632368712074530492e-02,-8.395442940173103441e-02,9.273085227005557762e-02,-1.121928320673411077e-02,2.031642801533200815e-01,2.138566782193448979e-01,-6.254186983575947545e-02,1.342218528707171954e-01,-2.527180167542807943e-01,-3.548536622621253911e-02,-4.013590889844208531e-01,-7.135343784053962968e-02,3.162587856959103022e-02,-3.850448063239528262e-01,-1.834052293861945515e-01,-9.303581895147491898e-02,-8.963745904075570703e-02,-2.525967745255920383e-01,-2.715686337616052271e-02,1.538810815975544775e-03,-1.053900176779972303e-01,-7.661098166864685130e-03,-8.059848085587153349e-03,-1.244958962068069830e-01,-8.724701209641791411e-02,-1.170933310052456322e-01,3.914583754896636819e-02,-1.086617091856754147e-01,-3.106867137196948625e-01,-8.704489711417366660e-02,-3.334305049416641520e-02,2.439051694649539345e-02,-8.546538067877834655e-02,-3.653754875608042907e-01
3.411396186394498042e-01,7.353339009875260734e-03,1.547484275749648128e-02,1.242678227884764890e-02,1.743228354261897040e-01,1.381461057864415143e-01,-4.479673769390039861e-02,-2.945776480744625725e-01,6.748266272418437794e-02,-1.387819412971187313e-02,-7.747591636854744834e-02,-3.585154371493273207e-01,-1.039897687237646418e-01,-1.059421151125766458e-01,-2.954506738285039291e-01,-2.160023914946376244e-01,-9.368697026832036034e-02,-4.741160776213548117e-02,-3.083367904572413831e-01,1.695254274997396240e-02,-1.679869913262895809e-01,-7.642900253955305090e-02,1.294388858340026760e-01,-1.857018516014263543e-01,6.569219621091586248e-02,-1.307933824025622471e-01,1.590660344899313960e-02,-2.371750751616992225e-01,-6.066789514764689417e-02,2.709123110260003298e-02,-2.299095159550905154e-01,-1.037154211805647597e-01,2.844381689293886892e-02,-6.560615646223877384e-02,-3.138855663334008117e-01,-2.143309660174315054e-02,-1.416103342154486841e-02,-9.012694151266617548e-02,-2.294501120139904871e-01,-3.258214934083330377e-02,-1.160223588798848793e-01,-1.009411869189036082e-01,-8.165587330738716121e-02,1.556146218874829984e-02,-5.285481902306912033e-02,-1.386984820266144725e-01,-6.050168545864290093e-02,-1.372952027290805883e-03,2.320962631486539821e-02,1.024130097869122848e-04,-7.631817262382468992e-02
-2.963129208707109274e-01,5.915867619833862223e-01,1.570496682006979408e-02,-1.225326706175882199e-02,-1.360179444104139546e-01,-2.378372282939680143e-02,1.186034335278161878e-01,1.038674232831131444e-01,1.434681063252011279e-01,2.657974163448220337e-02,2.114670318321815873e-02,-3.889837136381027460e-02,1.205837951396166036e-01,2.339058455973467010e-01,2.504956166552715913e-01,-4.791241147086501562e-02,-7.886950135263220973e-02,-8.478013650344785879e-02,-1.604702223472546097e-01,-8.078767678526779794e-02,-1.269414075999785452e-01,-2.718386139954368508e-01,-1.129476241900681660e-01,-8.935454633137251967e-02,-8.274363956642855067e-02,1.509531481239772821e-01,4.564635538409725357e-02,2.139971101352948768e-01,2.246361034171862059e-02,-1.143963296511469468e-02,1.978204976075187971e-01,1.028957468677726000e-01,1.165414123078215708e-01,3.626027676428891788e-02,-2.206459586795602151e-03,1.022286498827603557e-02,-1.285904474373420273e-02,2.910200848737991633e-02,-1.837413910152557450e-01,-1.832018424648216084e-02,3.148438221935739162e-02,4.039287421344748934e-03,5.089656248254606496e-02,-2.781384089621861608e-02,6.760856436910889222e-02,2.002447497901055085e-01,3.699299753752767483e-02,3.192968205005202592e-02,-6.629165476632266872e-03,8.619922847254615772e-02,3.087229573847299346e-01
-4.240179996951199404e-01,2.244496951924041805e-01,-8.790038226453820991e-03,-1.674260241829882145e-02,-2.198585922895764377e-01,-1.414506191375902444e-01,8.841722359553441657e-02,3.238709710650880536e-01,-8.076449131243279567e-03,2.409283769745421827e-02,8.308349101603973441e-02,3.374874328413153268e-01,1.475308188746446703e-01,1.934817232516814756e-01,3.854674892942066555e-01,1.946968013671192266e-01,6.078957973429626599e-02,1.276623925831810169e-02,2.376083689060525805e-01,-4.650082808255172340e-02,1.152165847155108697e-01,-2.882619140444524219e-02,-1.705264649160976309e-01,1.476281745465664597e-01,-9.579036272454279077e-02,1.873139807642930921e-01,2.717104277207339248e-03,3.161012814090067846e-01,6.776281935134868817e-02,-3.062754222583813357e-02,3.040315163938408505e-01,1.425702464208410403e-01,1.814410084163324902e-02,7.923597619926268931e-02,3.077010183026837598e-01,2.469839780568477278e-02,9.274059874587108759e-03,1.011663164195682890e-01,1.550786450963250740e-01,2.467624748429565751e-02,1.264742993913793578e-01,1.018959140065783808e-01,1.008414364825624687e-01,-2.582947014266144536e-02,7.779598490572829650e-02,2.139776134092201687e-01,7.433846564600443685e-02,1.442980447941497740e-02,-2.486437520678980509e-02,3.354539631567298591e-02,1.952532014191188936e-01
-2.363443968947245011e-01,7.960374465832434909e-01,2.589039140526965682e-02,-1.263712099508850807e-02,-1.283170782673641597e-01,9.817671192303841290e-03,1.447926414795471239e-01,4.032959120454086138e-02,2.152654594155478107e-01,3.013651798485584427e-02,3.609525472091659314e-03,-1.648783949783801939e-01,1.306000825655254383e-01,2.730719560094105880e-01,2.407510599371434357e-01,-1.340778824606275177e-01,-1.372111373149694225e-01,-1.313157420144637488e-01,-3.137705872246317473e-01,-1.051383342972428969e-01,-2.264376495829304448e-01,-3.894358946965841284e-01,-1.108224072823768003e-01,-1.784572851615797429e-01,-9.034904772667207151e-02,1.573906991635380670e-01,6.616575392412388235e-02,2.118393938137412003e-01,1.073676153170157431e-02,-6.748090546022308088e-03,1.927267094422517868e-01,1.059820104488532477e-01,1.638973990053270713e-01,2.687317767802887419e-02,-1.027797799548088170e-01,6.294292790438275539e-03,-2.178004638716550534e-02,9.773260676902638736e-03,-3.217749117760477229e-01,-3.527174889735218422e-02,4.010954247331945458e-03,-2.651803155916457669e-02,4.123417946828804304e-02,-3.281979056406974377e-02,7.375211427438352341e-02,2.255220905527212105e-01,3.020601357159231892e-02,4.274095728917806647e-02,-1.512209961405916936e-03,1.159169153713202893e-01,3.879754004115363308e-01
-4.131223004322168157e-01,-3.109746341188525109e-01,-2.279868176475557603e-02,-5.372211026330137723e-03,-9.408168310771052034e-02,-1.175393892203327462e-01,-1.923414239883618204e-02,2.250476248684001312e-01,-1.356409857954458675e-01,9.054698125917147282e-04,6.641917395959986981e-02,3.604273433467417020e-01,3.309715061931631230e-02,-2.019214953065367329e-02,1.478255217969416946e-01,2.320680277356528265e-01,1.282426246249417090e-01,9.190617886051048735e-02,3.738830593638615141e-01,2.513923607649906286e-02,2.261310320324491641e-01,2.135610795777584670e-01,-6.258349606959093259e-02,2.216500610357240997e-01,-1.973495927934458549e-02,4.815527830217429528e-02,-3.655194739649183372e-02,1.156038956340873086e-01,4.714960965494377487e-02,-1.826327514604507429e-02,1.208113519033879452e-01,4.482269917462891606e-02,-8.553596313917877225e-02,4.434077472320262225e-02,2.994719990167626911e-01,1.598448778119166205e-02,2.152876505189554521e-02,7.251215564558705085e-02,3.151370319505188977e-01,4.067976407554069890e-02,9.458248158906561176e-02,9.421800876697192240e-02,5.341012188927939802e-02,3.337139007504203998e-04,1.583844205459335880e-02,2.986175504971804243e-02,3.947803801442285182e-02,-1.584673413978575710e-02,-1.807408363343387600e-02,-4.338485469013136225e-02,-8.352992264825029323e-02
-3.824528942113479268e-01,-5.059431302714425538e-01,-2.969299095408983388e-02,-2.761281947796169652e-03,-6.876729641902026846e-02,-1.236823099444222945e-01,-5.246666030755435528e-02,2.236717104971281123e-01,-1.902557258084537350e-01,-3.994030653481257798e-03,6.904660811754777250e-02,4.108810608311941337e-01,3.085577164885286786e-03,-8.073676597173837233e-02,9.543987258832019316e-02,2.712562635154247004e-01,1.650116084545562578e-01,1.279871142532998940e-01,4.625656056718943643e-01,4.989766300505863589e-02,2.874098912350844803e-01,3.090380403695431877e-01,-3.996784815053777695e-02,2.694896319494490822e-01,-4.198952180049562001e-04,1.400155002141775448e-02,-5.368195703650699424e-02,6.923604379080761095e-02,4.696109950651439907e-02,-1.774118949667650644e-02,7.808540847283118591e-02,2.033463624835222736e-02,-1.263951859719772974e-01,3.864447097879724485e-02,3.332314682959420793e-01,1.558079926519229975e-02,2.695689987194531748e-02,7.158817963708320742e-02,3.996682701425077755e-01,5.048951229803382706e-02,9.624311212553703088e-02,1.023687957649723895e-01,4.534756964131227835e-02,7.852141227347519264e-03,-6.521678798314571937e-04,-2.240014287087722586e-02,3.329827269906251302e-02,-2.719299191443056221e-02,-1.874477904199053913e-02,-7.196372265806345869e-02,-1.753863290794267227e-01
-1.466364315419211861e-01,-6.810913273658412148e-01,-3.043481219619414979e-02,4.158770329084809751e-03,1.790153982672668120e-02,-8.081820183922897027e-02,-9.919143239997636752e-02,1.217934491149435389e-01,-2.193443291993163458e-01,-1.490243066485770138e-02,4.252610223330804962e-02,3.307284953297230934e-01,-5.758598820117360323e-02,-1.725904760299033225e-01,-5.166605610276132909e-02,2.316265400561268173e-01,1.672910123922199954e-01,1.432097182308837424e-01,4.336533439269323331e-01,8.077573709226476550e-02,2.841535665420096279e-01,3.723925992712856514e-01,2.656093139849496909e-02,2.508633912903754370e-01,4.081734259652812502e-02,-6.216797344183584012e-02,-6.432225239609998257e-02,-5.474349597224382330e-02,2.433721533596882799e-02,-7.736067856068100206e-03,-4.040092891059353375e-02,-3.731056827676252491e-02,-1.532883391726664324e-01,1.165368914957239273e-02,2.550442444053473423e-01,7.098532175374177265e-03,2.683081718012235439e-02,4.023589615614581866e-02,3.970966976125029357e-01,4.777935740699328082e-02,5.799560411305725027e-02,7.541884060632313147e-02,9.751270298373138079e-03,2.023943622505559176e-02,-3.449503171153502773e-02,-1.185952944677878262e-01,6.911810978198225548e-03,-3.700597843046964097e-02,-1.106810047598894182e-02,-9.816779540711846608e-02,-2.870394280514591001e-01
-4.310851489428110250e-01,3.156263054267444135e-01,-6.373117318800062062e-03,-1.862227242666663826e-02,-2.396594126693962490e-01,-1.440461534945675359e-01,1.066881043159644687e-01,3.378807791296425389e-01,1.479966433610290129e-02,2.809761093631124931e-02,8.615845306094890854e-02,3.328523572253179186e-01,1.666751811677707751e-01,2.304228693153595464e-01,4.237140488125415438e-01,1.886420110072439260e-01,4.900966523295216537e-02,-2.847861588121060241e-04,2.133297931942624570e-01,-5.867348716542153397e-02,9.633024095837719458e-02,-6.985204688571118592e-02,-1.883075395479252845e-01,1.347028958745838667e-01,-1.086667638008618764e-01,2.106288723927279283e-01,9.938998258800287727e-03,3.492862542069963827e-01,7.132126469364913346e-02,-3.240517223188481982e-02,3.352328869887423735e-01,1.584750530564957849e-01,3.600066559673681388e-02,8.500444368142195950e-02,3.086977961947311444e-01,2.622530247656819705e-02,7.154554237730368846e-03,1.063222677895432622e-01,1.279366297356887838e-01,2.191364489714048985e-02,1.315075187739205564e-01,1.030936201258383783e-01,1.089398097583204883e-01,-3.009528909292460280e-02,8.811609950247220602e-02,2.450265759124605480e-01,8.036532875981099167e-02,1.948155836532175153e-02,-2.587372044374049856e-02,4.672478330668261570e-02,2.426197904280615603e-01
-2.293208754268267757e-01,7.533290325894745898e-01,2.452807510499132454e-02,-1.194781452094260260e-02,-1.217750424544014470e-01,9.297547102552211271e-03,1.370170435973508405e-01,3.915411465168731897e-02,2.033860275147568730e-01,2.860446273328042660e-02,3.123408841402926760e-03,-1.560457187173234506e-01,1.231765572374552142e-01,2.595391409870621557e-01,2.281422500759111016e-01,-1.267704557984651315e-01,-1.295538262286811682e-01,-1.241095504534648342e-01,-2.965309898205715222e-01,-9.920628553191837562e-02,-2.137873161447879644e-01,-3.685497943363134632e-01,-1.050781414440534051e-01,-1.689180778399539673e-01,-8.549666449903625676e-02,1.496214083916148352e-01,6.269149557256833982e-02,2.004620442333041597e-01,1.015514194476374761e-02,-6.519117100504393490e-03,1.820323334663993264e-01,1.004059444626358710e-01,1.551974146774857122e-01,2.552500772058206510e-02,-9.709236501618342952e-02,6.052838875153003506e-03,-2.069618289223093544e-02,9.176636844539502735e-03,-3.041046427127042096e-01,-3.331097258247644327e-02,4.086728266314504712e-03,-2.506334722514487467e-02,3.912044180561146528e-02,-3.106177241790246402e-02,6.977496281829129177e-02,2.131279925624993687e-01,2.854043278515440429e-02,4.047176691863722114e-02,-1.466166910613260011e-03,1.095826094267873252e-01,3.674340761237965269e-01
2.437871323440846949e-01,-9.396708294743338907e-01,-2.947547013392468745e-02,1.578636982953749573e-02,1.598806693555707981e-01,-4.460293368814951392e-03,-1.749570705952116778e-01,-6.090147561006809679e-02,-2.529340195156310478e-01,-3.513829073750381754e-02,-1.013873898502211032e-02,1.750495050321089208e-01,-1.631328060707442906e-01,-3.249968515616032949e-01,-3.008825013049271635e-01,1.475392130351379227e-01,1.583780089561799276e-01,1.540573030471047156e-01,3.560605773917491224e-01,1.274753673096368778e-01,2.605024841084325193e-01,4.572934718241059016e-01,1.373354295124588342e-01,2.013752354964893354e-01,1.105897101714873182e-01,-1.889906612609027481e-01,-7.647687050306058165e-02,-2.633810752079208672e-01,-1.640562111615047683e-02,9.064884710220289313e-03,-2.419298755727337380e-01,-1.295103031885274925e-01,-1.914648900917329533e-01,-3.487353894711940627e-02,1.058661218307159341e-01,-8.156918280509109845e-03,2.495735534746886669e-02,-1.679192784866342589e-02,3.700610780015585743e-01,4.018620313737378963e-02,-9.552415287183986525e-03,2.640846681738390905e-02,-5.212484622658514200e-02,3.967288412476405179e-02,-9.059710800594843183e-02,-2.764055571086722618e-01,-3.908960251297062538e-02,-5.008874465190219644e-02,3.118097219161245805e-03,-1.374462211933712708e-01,-4.610103299056297343e-01
-3.979000183866093776e-01,-3.067944120887042270e-01,-2.204015059594201242e-02,-4.909334042660921243e-03,-8.746056215834849268e-02,-1.119570853993318016e-01,-2.039472410280076392e-02,2.133889351053324113e-01,-1.321282578703774080e-01,2.895091912748945463e-04,6.326479629684277073e-02,3.448615403936641788e-01,2.979476913350360967e-02,-2.296318068280744917e-02,1.370709461836841225e-01,2.227640448414663077e-01,1.238742320896680515e-01,8.940843586433640244e-02,3.595889043623830550e-01,2.545847489460936752e-02,2.182273274944583064e-01,2.089266798010203097e-01,-5.770103644598580800e-02,2.135848845865368217e-01,-1.750775406135210779e-02,4.378301115994525511e-02,-3.542869287012594820e-02,1.070742266960920536e-01,4.467106762752730970e-02,-1.710632672754592784e-02,1.126600515880260417e-01,4.117873572148097322e-02,-8.350415192477507464e-02,4.190104258238989965e-02,2.863985418283933049e-01,1.513781607585616348e-02,2.084107766413469814e-02,6.906498822880395572e-02,3.044098979798198212e-01,3.917147524507083589e-02,8.995568157980658730e-02,9.008473539386141482e-02,5.038832663162857300e-02,8.427087698790186729e-04,1.399974180656988684e-02,2.533606717935305355e-02,3.725670201537345516e-02,-1.561387119480524104e-02,-1.710285773723700664e-02,-4.277880384449828793e-02,-8.476842161161325662e-02
-4.008442265325455334e-01,9.817920718278616565e-01,2.669440278982268544e-02,-1.969636038330036323e-02,-2.074744365797256684e-01,-2.736768450218238571e-02,1.949166082985743786e-01,1.403779156787475502e-01,2.477840175635353526e-01,4.415238188813363357e-02,3.433874292634781639e-02,-8.759131937004445423e-02,1.987159593972863125e-01,3.696573943876313439e-01,3.924977477413250648e-01,-9.469802838517767107e-02,-1.397224483583731913e-01,-1.443482295297456863e-01,-2.899353053628651034e-01,-1.358399206720971031e-01,-2.271511979386192648e-01,-4.574404812803724019e-01,-1.768368135703488331e-01,-1.612053083027492062e-01,-1.330833302011852071e-01,2.326336356729546140e-01,7.388183800045972083e-02,3.385590224889996613e-01,3.363431537070604715e-02,-1.603707646061103970e-02,3.154325598561925070e-01,1.604231564292895595e-01,1.942473397805656310e-01,5.421228736937685339e-02,-2.785349081248933087e-02,1.444436160505499500e-02,-2.140692143669207723e-02,4.269741743898720909e-02,-3.261453324937885756e-01,-3.329930512612205851e-02,4.035978012878110865e-02,-1.410858647555747383e-03,7.721025262285800828e-02,-4.505493367745754679e-02,1.091414067536496113e-01,3.262632377322932653e-01,5.740182966052492786e-02,5.186615677954244108e-02,-9.336996665703313839e-03,1.439915157354120512e-01,5.035492729749131424e-01
2.003600437375466503e-01,-6.257545584481924994e-01,-1.682622434774603756e-02,1.283693833375359333e-02,1.412398786573885179e-01,2.290709943873177681e-02,-1.254829439818603010e-01,-1.026863243754569111e-01,-1.544615785598980051e-01,-2.553114408841528765e-02,-2.017346249039272607e-02,4.956970076111854445e-02,-1.262220761749895670e-01,-2.448882468854441108e-01,-2.587402259194665488e-01,5.644402876718534329e-02,8.632552416759496638e-02,9.294274110132469402e-02,1.781545973606152855e-01,8.691373864461980625e-02,1.385837001781333455e-01,2.908895346542731408e-01,1.168958066682131147e-01,9.965239951962198695e-02,8.645583309125007276e-02,-1.548715090550423779e-01,-4.882679334616982919e-02,-2.209315359917956856e-01,-2.265843790996288284e-02,1.169154840549820051e-02,-2.042713312129560421e-01,-1.060691621443446281e-01,-1.233417595567304070e-01,-3.661861358736966110e-02,1.030706653793025084e-02,-1.017052300722005517e-02,1.452880183282540157e-02,-2.865811867279060079e-02,2.004068497777518054e-01,2.021009788105158911e-02,-3.033430195398932605e-02,-1.728778653225832192e-03,-5.107635367329652759e-02,2.924111724945805887e-02,-7.057955020172673732e-02,-2.097893321402088396e-01,-3.763764764350961689e-02,-3.364585318796203817e-02,6.634115819757060301e-03,-9.127255968345417136e-02,-3.241642024436989789e-01
1.016915639576505825e-01,5.417127606033355081e-01,2.582784352894542182e-02,-1.962655387536669637e-03,3.416219607935466578e-03,7.871493747400168384e-02,7.340587693787163637e-02,-1.262788565604407442e-01,1.804978358109926295e-01,1.185839878777418879e-02,-4.161513213703171843e-02,-2.976983087612231071e-01,3.300580598257422948e-02,1.284866350812484403e-01,9.973340976222745680e-03,-2.039851776618215873e-01,-1.414737779844104926e-01,-1.166145290104732002e-01,-3.732515375170986638e-01,-6.115337324138080816e-02,-2.406500998751774367e-01,-3.022964680146789651e-01,-8.489409580964136018e-03,-2.174083560295178574e-01,-2.587244070477414878e-02,3.856300320637798956e-02,5.323417520545951215e-02,1.957875565544347010e-02,-2.525123816443341357e-02,8.826805701139561408e-03,8.616024800602648318e-03,1.960965333410483180e-02,1.250416745832051424e-01,-1.561271677355842609e-02,-2.325451366258399211e-01,-7.354428277294202884e-03,-2.255337065487490397e-02,-4.081162489812453775e-02,-3.363420115851774583e-01,-4.092945550385149178e-02,-5.689009998326722412e-02,-6.958147011051488140e-02,-1.504821087465716550e-02,-1.437439593605416115e-02,2.180963347961326071e-02,7.905822570496399970e-02,-1.141703004075047927e-02,2.932156660437457152e-02,1.116985285754871875e-02,7.773929910842493352e-02,2.213998458614456766e-01
3.214597098016381826e-01,-3.081135264190528189e-01,5.451263530081692545e-03,1.753633977963464999e-02,2.265539581146173709e-01,1.347462739123021225e-01,-1.028261213332459095e-01,-3.148446193192112053e-01,-1.677427582674254763e-02,-2.481050562153504571e-02,-7.960326288167737796e-02,-3.022707396515402212e-01,-1.579559640084064742e-01,-2.230522391845693175e-01,-3.958948317272793505e-01,-1.714539580500048233e-01,-4.270422787600465508e-02,2.604576190900154131e-03,-1.905011577305711357e-01,5.740871474479529446e-02,-8.515386904355287667e-02,7.274880289239972486e-02,1.761879283517301664e-01,-1.214434697252701895e-01,1.031996563126525851e-01,-1.990196600695024187e-01,-1.244955004420171193e-02,-3.266372688613650710e-01,-6.642919609275708959e-02,2.992697020388953785e-02,-3.135850721189799017e-01,-1.483802031494595997e-01,-3.659991416350892590e-02,-7.882966593972230707e-02,-2.837407305557536064e-01,-2.475491673613474178e-02,-5.369231583116601363e-03,-9.830849241056427434e-02,-1.119027143969562044e-01,-1.962772529159817481e-02,-1.217098935973945223e-01,-9.442579987616515902e-02,-1.012901702428326139e-01,2.850768783717916657e-02,-8.273230899649151870e-02,-2.308186427170019761e-01,-7.495773029697516687e-02,-1.897990076730207698e-02,2.404985931434201404e-02,-4.572407673452936333e-02,-2.325357319357488628e-01
-3.139502990992939502e-01,3.875427092042820765e-01,6.217720266312116821e-03,-1.129774811355718084e-02,-1.358247962743828474e-01,-5.226155699330036625e-02,8.972153112317671209e-02,1.500944014335031385e-01,7.592720572305827753e-02,2.105811539702072410e-02,3.518517250729320117e-02,7.128926090607699828e-02,1.066812382977474216e-01,1.846612320525911344e-01,2.453294107131553381e-01,2.829202961856317616e-02,-2.624894877733709858e-02,-4.213714423344463306e-02,-2.315196216436056845e-02,-5.675026981710414725e-02,-3.687048608219708340e-02,-1.566135689584709778e-01,-1.085474507450081977e-01,-7.846109890862183051e-03,-7.195838859236251828e-02,1.367505376881773260e-01,2.683551190338050868e-02,2.058370555798420265e-01,3.127690996564794906e-02,-1.433111420712880960e-02,1.944486362371982691e-01,9.618162740139102329e-02,6.991699505582306406e-02,4.260301761782111368e-02,8.453521997132930343e-02,1.281409103684250268e-02,-4.260575820612456412e-03,4.486114835628542130e-02,-5.649056121624313614e-02,-3.091277582027370224e-03,5.320355243895979330e-02,3.074750217163708249e-02,5.678831109846946279e-02,-2.215985562165381090e-02,5.890461611180913826e-02,1.696878779138611404e-01,4.139619620733551303e-02,2.158470739736084373e-02,-1.037391706613115423e-02,5.695772415451388904e-02,2.249998906557525435e-01
-2.484574601561263460e-02,6.640126367646281835e-01,2.712580571799443410e-02,-6.095429342185460821e-03,-4.713673532172863584e-02,5.564411896553564385e-02,1.035981458009148093e-01,-7.002537259959726312e-02,2.024107341550760997e-01,1.861197578426344174e-02,-2.716223340334423392e-02,-2.620588397841764894e-01,7.096750592848737049e-02,1.882940989297102741e-01,9.718393990819176875e-02,-1.878024867531900288e-01,-1.471683155637090734e-01,-1.287037352693339298e-01,-3.693938421045349085e-01,-8.112059365212147266e-02,-2.472450075111866652e-01,-3.498083638533688311e-01,-4.764788542687819345e-02,-2.133165714105288990e-01,-5.142816273548349304e-02,8.522245299750937086e-02,6.122422130695100856e-02,9.316729363876501135e-02,-1.298009916744674933e-02,3.379051678247304343e-03,7.866584039508472959e-02,5.376651755064210808e-02,1.455685172769148883e-01,-3.198187593317454100e-04,-1.946618454114262264e-01,-2.617297605437035341e-03,-2.342212575732671026e-02,-2.373017546700686292e-02,-3.470226453518127641e-01,-4.081950948364886089e-02,-3.655158180965758369e-02,-5.643644135390436800e-02,5.448778787614412533e-03,-2.210842997675466562e-02,4.236909514973569157e-02,1.381927178831471315e-01,3.771371196432478715e-03,3.606350701986401480e-02,6.988150701618448500e-03,9.596605074563219206e-02,2.949379228241211792e-01
2.632751600995309471e-01,-4.523416983007131909e-01,-3.280346861814915829e-03,1.642304406120114607e-02,2.023136776540069293e-01,9.540355854467347241e-02,-1.171587635618758366e-01,-2.454426137805723052e-01,-7.405480339829018099e-02,-2.553899139566887661e-02,-6.058376837993317832e-02,-1.746688843495441124e-01,-1.526818667581959499e-01,-2.453296750673151227e-01,-3.599025205321305654e-01,-8.962562440626047067e-02,7.512077144824968675e-03,3.842314994120406973e-02,-4.906958415410563740e-02,7.205774092360532623e-02,-1.436964749408965215e-04,1.632423882757967348e-01,1.597979797754922049e-01,-3.870148881945514874e-02,1.016510122491546958e-01,-1.925487659525701722e-01,-2.957787725548872981e-02,-3.011096419056644713e-01,-5.250165083660841836e-02,2.318420419258825083e-02,-2.882078454378968480e-01,-1.384847633636712427e-01,-7.445345484899995592e-02,-6.666233993479345199e-02,-1.800852381749031839e-01,-2.049901889263761740e-02,2.062451925441179720e-03,-7.684469225707477036e-02,6.232849935998638347e-03,-4.667992405331574009e-03,-9.175124449920767089e-02,-6.237613817971346397e-02,-8.727921526464994806e-02,2.977299315081457370e-02,-8.218634688582127090e-02,-2.349631733716189275e-01,-6.457357458204313061e-02,-2.596075894838126633e-02,1.788392201588070302e-02,-6.697407274337489891e-02,-2.825090686453722300e-01
3.130573020734845890e-01,-9.983803231858380256e-01,-2.934393441196255295e-02,1.831599637034124137e-02,1.885164654753077595e-01,1.014495751807629326e-02,-1.920351398487437633e-01,-9.918070086634576954e-02,-2.618194294536608790e-01,-4.020765611385458682e-02,-2.214889326835364075e-02,1.422365772662275707e-01,-1.872820310568097668e-01,-3.583316391759993058e-01,-3.555530260143910382e-01,1.298448169430721222e-01,1.569674708298936794e-01,1.565696415267275876e-01,3.412566444482657557e-01,1.376051231342246273e-01,2.567563367531256469e-01,4.770782606552658178e-01,1.611099982952429455e-01,1.916389783329019436e-01,1.257464732793266982e-01,-2.157738866124219168e-01,-7.847029267542678099e-02,-3.089559822670959188e-01,-2.519327385586908261e-02,1.253520620999156246e-02,-2.862638500051001844e-01,-1.488095437229325080e-01,-2.005364434514092242e-01,-4.500608410561247191e-02,7.492918577409783676e-02,-1.129170011094453654e-02,2.446314146594476269e-02,-2.938946987187951096e-02,3.662397136554057520e-01,3.879071878955394487e-02,-2.361377636826034881e-02,1.624820527025427203e-02,-6.544954608494998882e-02,4.385498833596918056e-02,-1.030820057170460380e-01,-3.116242288990578313e-01,-4.914577708339062934e-02,-5.288362116571376087e-02,6.144235582920772910e-03,-1.463940402368675564e-01,-4.994759328463439507e-01
-1.478385505136090572e-01,-4.014273754754750512e-02,4.503354629256399802e-03,5.318616632644857477e-03,7.361615268516534527e-02,5.250577941823360295e-02,-2.536484960802921559e-02,-1.171787504169849309e-01,1.511408902496523196e-02,-6.082777891661055904e-03,-3.058763692776779106e-02,-1.264495515739042508e-01,-4.727975046889011657e-02,-5.877343767338020358e-02,-1.254424980172590132e-01,-7.618826584485215159e-02,-2.871602170362773029e-02,-1.246647170285334998e-02,-9.971131306377790937e-02,1.177297708619739862e-02,-5.307888506417660079e-02,-9.854540688352486297e-03,5.405932744855916627e-02,-6.255786488182882299e-02,3.010171816278295678e-02,-6.042602532792141351e-02,4.682442420778731938e-04,-1.021583339044217914e-01,-2.394812339175434249e-02,9.936190842690682118e-03,-9.975975724344041118e-02,-4.531348410798623216e-02,1.254099583154694945e-03,-2.703877019087554817e-02,-1.151776847889140754e-01,-8.992766550362253294e-03,-4.312688252536987267e-03,-3.587020589070576138e-02,-7.191431630104760941e-02,-1.068939790250632293e-02,-4.520653111101936850e-02,-3.741115935174491730e-02,-3.419213758242140022e-02,7.343271257135458065e-03,-2.405939268300589379e-02,-6.518218241444635741e-02,-2.528584129057087973e-02,-3.012105305537267960e-03,8.703773286251062502e-03,-6.614398643368268015e-03,-5.096442097360524143e-02
-1.610715357225197264e-01,7.119457000303763827e-01,2.515349221968067941e-02,-9.713406356725658511e-03,-9.409850239957277818e-02,2.542394078831053048e-02,1.233348588194532469e-01,-1.019434978339478493e-04,2.003038640126102721e-01,2.463886136460263082e-02,-7.896261113696918105e-03,-1.919871179230741298e-01,1.026937950615711692e-01,2.311205831138293809e-01,1.783515294480926272e-01,-1.470083774782939556e-01,-1.341861731941789981e-01,-1.241687855440831850e-01,-3.185837898892238118e-01,-9.154354044595870710e-02,-2.229029053989780573e-01,-3.572801736368869663e-01,-8.338364872248665849e-02,-1.826848357144353063e-01,-7.231566188308993781e-02,1.250061552991714731e-01,6.154853193265942546e-02,1.595333523527987518e-01,1.778696292747855654e-03,-2.961242234813121418e-03,1.425884503071445653e-01,8.261721337274234578e-02,1.497693965112884829e-01,1.592164007244579321e-02,-1.306170598281124473e-01,2.934170395803481837e-03,-2.147929585040795480e-02,-2.823616205425506179e-03,-3.154998210710238671e-01,-3.554568411750015644e-02,-1.041145609241811779e-02,-3.595359513322829437e-02,2.660253950192102354e-02,-2.750352614443071081e-02,5.906247139969928589e-02,1.834926688620798774e-01,1.928654483251067420e-02,3.841055112363511714e-02,1.551593189636909240e-03,1.033030606858592049e-01,3.370272300566392043e-01
3.786580681011377236e-01,-4.461981404332755474e-01,2.290548124505071073e-03,2.078863207562869908e-02,2.609037852673981583e-01,1.420384984360615055e-01,-1.319690641959915811e-01,-3.437762758043099165e-01,-5.080251214048973202e-02,-3.140089922292287755e-02,-8.712746387639472290e-02,-3.074536298335905915e-01,-1.902740203305927358e-01,-2.813576795644082695e-01,-4.630923413536811584e-01,-1.695660013232730967e-01,-2.741947431952645661e-02,2.125767757411003642e-02,-1.629646578477080554e-01,7.663634999869277376e-02,-6.173794118970641481e-02,1.326213978855587949e-01,2.071608545824569769e-01,-1.074393780793916620e-01,1.246751640750208556e-01,-2.376365378593573718e-01,-2.280162706335840672e-02,-3.847539229608866185e-01,-7.393999268146320136e-02,3.337261611137270351e-02,-3.690307300043938477e-01,-1.755303065082789160e-01,-6.274669626786368026e-02,-8.976406666297467862e-02,-2.951747875233841079e-01,-2.767300955297440773e-02,-2.800563839256775024e-03,-1.094440888698357955e-01,-7.826649049681401460e-02,-1.646332363728391507e-02,-1.329388177305736163e-01,-9.963092214837360183e-02,-1.162150175509459593e-01,3.540673318568093170e-02,-1.002268521062700812e-01,-2.829551227279755166e-01,-8.620418074298949462e-02,-2.660896924765317195e-02,2.624543640863901198e-02,-6.580168993794427434e-02,-3.066510275335885272e-01
2.535221492978275704e-01,-5.069476608072092105e-01,-6.913368234536471438e-03,1.577920505946227292e-02,1.896810877474147949e-01,7.771339776989752424e-02,-1.217087164499500718e-01,-2.129434939947208727e-01,-9.699894636749051280e-02,-2.602677776191011580e-02,-5.145827662262713459e-02,-1.186242653851381501e-01,-1.485774741229273777e-01,-2.503529308345330273e-01,-3.403252664466540622e-01,-5.299571758127090415e-02,2.852353067214025845e-02,5.336087277487291947e-02,1.046608843274197606e-02,7.733368359756488675e-02,3.630362194995959829e-02,2.001173169211473701e-01,1.512454360600463399e-01,-2.783206795123365461e-03,9.956160878039226059e-02,-1.864536965625534781e-01,-3.533221504244214023e-02,-2.859412796215325403e-01,-4.574448835504078131e-02,2.043818450471878573e-02,-2.722104605740826022e-01,-1.323488241488205153e-01,-8.906009712033309544e-02,-6.022729935650504574e-02,-1.331858702662041538e-01,-1.824457506412368105e-02,5.276121380549998567e-03,-6.593627236970499295e-02,5.732837496644975495e-02,1.785555479311559928e-03,-7.744764639064428968e-02,-4.757004745774961324e-02,-7.960719759656671723e-02,3.009614000431689446e-02,-8.084629022548012189e-02,-2.331882911132514835e-01,-5.886274238641758805e-02,-2.841646720661037198e-02,1.520757267890023197e-02,-7.480096384653996122e-02,-2.992635136299688359e-01
-4.326789534956753114e-01,8.622740643219383161e-01,1.965698103779464287e-02,-2.035467153567781240e-02,-2.241639774275588637e-01,-5.613221152195483482e-02,1.828292294946360086e-01,1.997671962499844023e-01,2.017827214442121375e-01,4.258494939945454277e-02,4.975894033894891905e-02,1.392154459286222210e-02,2.000656177385600754e-01,3.568067856234005131e-01,4.213583526992873973e-01,-2.657377309650880287e-02,-9.817260041801002812e-02,-1.141167555273560896e-01,-1.776229888951691704e-01,-1.222197546050239059e-01,-1.549098898273876534e-01,-3.825882774396371366e-01,-1.881403803282179210e-01,-9.487153908190233687e-02,-1.334560541629342123e-01,2.398197958697211030e-01,6.122111913778568310e-02,3.585967513919848249e-01,4.517892707572509353e-02,-2.089791623453992123e-02,3.371216028784536078e-01,1.666269090830893307e-01,1.648610314599774640e-01,6.552309513019081988e-02,5.575409418620119045e-02,1.847017728732433875e-02,-1.517538148617052912e-02,6.197691403296529816e-02,-2.259662935004744799e-01,-2.078757695125164895e-02,6.631912961468165724e-02,2.490009828422239113e-02,8.971354965175357132e-02,-4.315340581107257600e-02,1.096562014178566330e-01,3.224753114732397119e-01,6.642734973622162198e-02,4.594659212510213142e-02,-1.396724786411824432e-02,1.265574822786269815e-01,4.637569274513077544e-01
2.355684914462728985e-01,2.115307600509522268e-01,1.819251050922060173e-02,5.870310727279968999e-03,9.463938542343991456e-02,1.049400012800333626e-01,4.446042825465212553e-03,-2.052224405714108413e-01,1.053180054664693277e-01,-1.725185824530239397e-03,-5.763302539446163442e-02,-3.037453579470613119e-01,-4.262211000437676062e-02,-5.846222292873040800e-03,-1.529326051563320299e-01,-1.926876327449558723e-01,-1.033654929366314978e-01,-6.957644502666586461e-02,-3.054042386470672277e-01,-1.367940922900794803e-02,-1.809688486406440810e-01,-1.565465969704499805e-01,6.483883046205120293e-02,-1.820205321134274468e-01,2.514451523316758516e-02,-5.446064535430759912e-02,2.824752293497472672e-02,-1.188794653359133008e-01,-4.199164688036366444e-02,1.735527203143127917e-02,-1.202848812922207161e-01,-4.763239304191722867e-02,6.288799156375926569e-02,-4.098563588835553440e-02,-2.556354072953718193e-01,-1.422218959041884716e-02,-1.632693162290996952e-02,-6.397655789009740190e-02,-2.507972262104131156e-01,-3.293364444385355611e-02,-8.344750629486567817e-02,-8.038592393552330961e-02,-4.934871708159926235e-02,2.656325019468983462e-03,-1.983188246940631450e-02,-4.410341920161799795e-02,-3.678516712855659648e-02,1.052576392736993133e-02,1.648638232345690444e-02,2.943780623893649945e-02,4.405410897097364331e-02
-2.177020663757908703e-01,5.801077737827525782e-01,1.866942055793274421e-02,-9.398313592296342334e-03,-9.791973737867298855e-02,4.726546869240337567e-03,1.063726008439906529e-01,3.880916337726592752e-02,1.543499330685028370e-01,2.274853111799021027e-02,3.239999258320833825e-03,-1.133410923866643022e-01,9.568536531914638432e-02,2.053464805498129708e-01,1.822649958428367023e-01,-9.308346042025421319e-02,-9.711944910411091092e-02,-9.393794580923522930e-02,-2.213023586172820356e-01,-7.580431962019318348e-02,-1.599723798770492089e-01,-2.822280830718325029e-01,-8.387871666147705962e-02,-1.265989072032875362e-01,-6.708002587999320476e-02,1.198368049657777545e-01,4.823067152560128051e-02,1.589633395381607472e-01,8.993138673175013476e-03,-5.831004075073083041e-03,1.437450808161528926e-01,7.961678014469858455e-02,1.193716390458895021e-01,2.124274764158109660e-02,-6.817329757732089324e-02,5.371954514514451842e-03,-1.584160043116125335e-02,8.675388583701140396e-03,-2.285727404209290381e-01,-2.482852815277935762e-02,6.207291570538451750e-03,-1.726684753448014947e-02,3.210138037829622648e-02,-2.419278331595706502e-02,5.471839609294425893e-02,1.659974266129086162e-01,2.308873054906458722e-02,3.126014319702277028e-02,-1.656686952052984722e-03,8.411056812083803069e-02,2.853464518094511737e-01
4.012474611106829903e-01,-6.059944794195200046e-01,-4.092040686003088450e-03,2.223665598001813362e-02,2.684656398141260780e-01,1.256059544439317444e-01,-1.578320886558675085e-01,-3.263618424328260104e-01,-1.021036998722830852e-01,-3.628229171161278382e-02,-8.325165372221754456e-02,-2.448549024001501206e-01,-2.082988544051806168e-01,-3.281941595261048117e-01,-4.868641470575263974e-01,-1.265016612618058978e-01,8.117003293874545597e-03,5.081955112925830992e-02,-7.232811335499876593e-02,9.624561742888465554e-02,-3.201006652825320008e-03,2.165892618338865760e-01,2.171911748163017908e-01,-5.600140237078764238e-02,1.371094022854696115e-01,-2.574722766497936077e-01,-3.765252631910186859e-02,-4.081452678711076087e-01,-7.168229557962686738e-02,3.171075543814243919e-02,-3.915237291943483022e-01,-1.864509038093862259e-01,-9.877850994786821492e-02,-9.050480066079906460e-02,-2.483719729550840916e-01,-2.731077640032016432e-02,2.231008157007146903e-03,-1.058206254237395727e-01,3.660785736314392004e-03,-6.790897076757410056e-03,-1.243418420648320366e-01,-8.614268698924605616e-02,-1.183788984212696682e-01,4.015857897335980975e-02,-1.111478665539211153e-01,-3.183676885080331531e-01,-8.805616372751302878e-02,-3.472785738100540170e-02,2.436253097695535025e-02,-8.945553955906891674e-02,-3.783805935848728597e-01
