1.647119541653533081e-01,1.385544661631962882e+00,2.656052012585738073e-02,-1.539471518093859723e-02,2.345260910433232676e-02,7.910848778517963475e-02,1.027942868485233752e-01,-1.957046310511289799e-01,2.410005777049863407e-01,3.650611977682718858e-04,-2.124313193710473512e-03,-5.901597964208313840e-01,6.173464016390491083e-02,5.822919179561297787e-02,-6.175777772200993603e-03,-3.978875845641413056e-01,-5.955150841400411732e-01,-2.845159136906297848e-01,-9.313500946488172394e-01,-2.727328307847627364e-01,-7.255276806465422723e-01,-3.997020875060912082e-01,1.088412919851579619e-01,-4.510086365215957294e-01,-1.163415864666260749e-02,3.771405737343017789e-02,2.050194938878855400e-01,1.995332685234379178e-01,-1.181544974639564451e-03,1.944643278730978642e-01,2.261600409303517190e-01,2.091756064130775028e-01,4.427008965325652246e-01,1.139932692441102402e-01,-3.534656854537209236e-01,-3.109788374909915401e-02,-5.449699584499321028e-03,6.730604109914216371e-02,-8.114069318760546157e-01,-1.327895418154916574e-01,-1.475433800348956437e-01,-9.185170598727071534e-02,1.757525802542924537e-02,-2.115704536266144534e-02,7.379450079740353108e-02,3.555461446215056331e-01,2.046191214087782761e-01,2.750328665456389099e-01,6.760565417799360710e-02,3.256184351246037556e-01,5.530570096117185530e-01
-3.681609542083490449e-01,9.700952637103069653e-01,-8.926173173394424606e-03,-4.337651815686636991e-02,-1.364135852728067255e-01,-2.685005549843599154e-02,1.491608220615008307e-01,1.016953102506364809e-01,1.949559671948695172e-01,6.995745179049106532e-02,6.044567120431022095e-02,9.249210475694064071e-02,1.479699665800180697e-01,2.669996023369711202e-01,3.260149122577760683e-01,-1.583148798480695342e-03,-1.432332185453776829e-01,-1.107180132268997530e-01,-1.933011242319472855e-01,-1.713848569187045867e-01,-3.131922502170767508e-01,-2.633764015197237462e-01,-2.288136906043488905e-01,-1.896302070985962651e-01,-1.156861015543431404e-01,1.322076323724423741e-01,2.071342056752239341e-02,3.221086517294708962e-01,4.470531069121884415e-02,9.904385374983754042e-03,3.509430403464668946e-01,2.172414065941174477e-01,2.198283779843711039e-01,6.859836690124512804e-02,5.393063158472073682e-02,-1.980294910451295062e-02,-2.632340809432117887e-02,1.270311720899694463e-01,-3.173210794092563569e-01,-6.855166683689883911e-02,-3.399805351013169413e-02,5.080799198030222508e-02,9.162259402891949345e-02,-5.497519170570179525e-02,9.470486806849814920e-02,3.421549458235217944e-01,1.286999528758515920e-01,1.004951871476800901e-01,-1.375322410348443596e-02,1.749266806139238573e-01,4.443523372567617646e-01
-5.928122224854579514e-01,5.110385369178046533e-01,-4.480614063529338859e-02,-6.885073491632613674e-02,-2.746127692726861302e-01,-1.673158138716362708e-01,1.778528518563456950e-01,4.192604391559404675e-01,1.320982254948880608e-01,1.198017165319789218e-01,9.873504000969872407e-02,7.945289178339670633e-01,2.815021780711950972e-01,4.309006891607189971e-01,6.787829773566343983e-01,3.793147695118508911e-01,3.112876939856629721e-01,5.100704058613311082e-02,5.617204511905549147e-01,-4.588834102147607702e-02,1.088017033198568490e-01,-1.047808564337811416e-01,-5.477451641656077008e-01,1.087590763204386718e-01,-2.041849168992710128e-01,2.009685695462094523e-01,-1.553324733798784052e-01,4.644658990255945419e-01,8.533890188020411272e-02,-1.727794752320662985e-01,4.634669822924830651e-01,2.329025779556450348e-01,-2.608490955086586321e-02,5.007846360987767281e-02,5.238225384395314155e-01,-1.365917039373028448e-02,-4.806990622398345930e-02,1.949794440062875001e-01,1.991170450121682867e-01,-2.381080590090622028e-03,1.028895941268711395e-01,2.105211299908986700e-01,1.649050035667256608e-01,-8.436572108845753759e-02,1.098562587037122257e-01,3.212697694114186597e-01,6.313767710225930141e-02,-5.120575768628714275e-02,-8.658427030549283032e-02,1.641400361841732422e-02,2.977739824367958699e-01
2.292295997647228190e-01,-6.836820122667983668e-01,6.753214118990567838e-03,3.122393246268833494e-02,1.241668500942525455e-01,2.897124721301121489e-02,-1.207710146887708835e-01,-9.678865687172513721e-02,-1.287336916591238500e-01,-2.714180901558786718e-02,-3.778930199244670551e-02,-3.781925588125263117e-03,-1.128272160769663718e-01,-1.828560979605121095e-01,-2.175545036846023572e-01,2.434692342318274527e-02,1.241024124928205574e-01,9.618415550412794113e-02,1.908372224134982920e-01,1.422982620511740737e-01,2.413650263014655850e-01,2.379357545752454894e-01,1.531686622774462714e-01,1.429192619787239549e-01,7.688880021795750641e-02,-8.457031542455042961e-02,-1.940599309017946444e-02,-2.111650437801629032e-01,-3.504446815722694203e-02,-1.015141900503116999e-02,-2.286077438120498462e-01,-1.422309828193445980e-01,-1.532484030921353324e-01,-3.895332297178125125e-02,-1.697047177252805281e-02,1.223051987354264146e-02,2.572210884490380364e-02,-7.984184737105330665e-02,2.519447559308405360e-01,5.017053776273554255e-02,3.441364163353588523e-02,-1.838887752074202034e-02,-4.955754185587160632e-02,4.011643332448401600e-02,-6.647989058407335894e-02,-2.419881459827061265e-01,-8.898883589783401771e-02,-7.546277008704187217e-02,8.478991833375214282e-03,-1.252658905867288508e-01,-3.127198681863588847e-01
-4.169038798197849394e-01,-3.035422723991906824e-01,-2.611279632905116888e-02,-2.004976996463769465e-02,-1.042435357110903654e-01,-1.005975084639606498e-01,1.206780264727573548e-02,2.176083608265257374e-01,-4.674959409546004113e-02,4.242135679551999744e-02,4.134287415114523689e-02,5.321500722565523089e-01,5.610441720200844834e-02,1.132565946526344347e-01,2.539737118277827221e-01,2.828793846710040416e-01,3.212247409278207733e-01,1.253799231873674314e-01,5.485236169651347415e-01,7.557749495131491080e-02,2.926390236738428685e-01,1.314603475079149930e-01,-2.367297153402027343e-01,1.900484893765573835e-01,-7.259818036121250262e-02,5.770243609559996129e-02,-1.327645980409139226e-01,1.102999002093184994e-01,3.175845750907597964e-02,-1.272203375926742042e-01,1.100551690456681581e-01,2.246583579601113198e-02,-1.631689874972513388e-01,-1.483414938768892570e-02,3.203323448024168463e-01,2.890819619331237971e-03,-1.288429657492639116e-02,5.815501152434535137e-02,3.721618015562350723e-01,4.557865293882003982e-02,9.222129009064164440e-02,1.198699205856881278e-01,6.320765426509578067e-02,-2.293278095402314504e-02,1.729785255758865478e-02,-2.151685272704013691e-04,-4.180446695804619639e-02,-1.162099204576086120e-01,-5.575012685525652240e-02,-1.053141267544865783e-01,-8.232435617704315922e-02
-7.920390006174111708e-01,9.767883695795469556e-01,-5.810779279267628411e-02,-1.038288755816180603e-01,-3.863196017651534531e-01,-2.252617500261555883e-01,2.795027758249555294e-01,5.458669616556902637e-01,2.401461657801306493e-01,1.685446137234607455e-01,1.381631693895988555e-01,1.036832721895819986e+00,4.859034922695550374e-01,6.325501183724216991e-01,9.622092427978182760e-01,4.729353615664876331e-01,3.603174097948653176e-01,1.031833125745262522e-02,6.503607286497355977e-01,-9.313144614099003182e-02,4.270072153242809865e-02,-2.403039703322550902e-01,-7.782030500673394746e-01,1.309673120636438703e-01,-2.929606212946042065e-01,2.940917409257872150e-01,-1.935295484368100005e-01,6.915280709296645067e-01,1.189807344823812091e-01,-2.192175421120566292e-01,6.931094989446195953e-01,3.593120682332749949e-01,3.141290158292196766e-02,9.253930425176100372e-02,7.599379843852713812e-01,-1.986415493913124691e-02,-7.628083702584477488e-02,2.947488294714600832e-01,1.358962105602209980e-01,-2.618304681447463506e-02,1.215668107712552376e-01,2.885820604157068869e-01,2.384663094131436734e-01,-1.257488773060558007e-01,1.647405948627182204e-01,5.192187067597290318e-01,1.286495263254220645e-01,-2.598989627684841069e-02,-1.113456332769217488e-01,7.666552805286870609e-02,5.231490885273778479e-01
-1.630548818533106015e-01,1.705973043552383439e+00,1.287406968003420443e-02,-3.964672100863568527e-02,-1.017461751259740033e-01,2.884339721716936561e-02,1.903374516847869402e-01,-5.887260995747637532e-02,3.069650025714760200e-01,3.287759917361777334e-02,4.197731600698629412e-02,-4.733157166675822092e-01,1.688533891380611940e-01,1.876131485323038750e-01,1.871273720693765741e-01,-3.391541703411425912e-01,-5.887025021627381172e-01,-3.110304716094829391e-01,-9.250339272909988697e-01,-3.517417337602520844e-01,-7.956003315843975798e-01,-5.576616173113640995e-01,-4.645080662424064255e-02,-4.828918683296501424e-01,-7.253968791317137732e-02,1.099262575810643072e-01,1.918544669876494080e-01,3.535886773210543677e-01,3.788222507891442908e-02,1.694887659673392222e-01,3.975011630453131328e-01,2.960784428704649196e-01,4.821368648630312004e-01,1.327239974905767839e-01,-2.373490330142068172e-01,-3.081144517751064141e-02,-2.277790645381604431e-02,1.320757006895175445e-01,-8.700170576430291680e-01,-1.487963763620359370e-01,-1.441397063275652868e-01,-5.268948892012099289e-02,6.228763721280646676e-02,-5.309328369489482030e-02,1.218545443258998162e-01,5.066990552742873799e-01,2.521202659627496678e-01,2.886937197309827341e-01,4.831559936388826748e-02,3.776642738019106438e-01,7.245744374225028261e-01
-2.689814192351664968e-01,-6.306728048041848611e-01,-1.977042639824076048e-02,-2.212086296552684579e-03,-3.614889837792087390e-02,-7.400358617426312791e-02,-4.313917303345147364e-02,1.540571312282148775e-01,-1.105778241994927330e-01,1.950673192269870154e-02,2.095992249002996341e-02,4.598429301790003532e-01,-5.089971009411621214e-03,1.319902792966885959e-02,1.101352932609690194e-01,2.665912757766092933e-01,3.496008756542296481e-01,1.618004583885431780e-01,5.782115281814209640e-01,1.365512135598909160e-01,3.884215760650945870e-01,2.288189840030633859e-01,-1.323988382505477956e-01,2.441056976395017675e-01,-2.540831773539575442e-02,9.213474246241500423e-03,-1.283994514501182460e-01,-1.789414816189724769e-02,1.282346925945569531e-02,-1.197730111143157916e-01,-2.492027632801009987e-02,-5.920637398920380184e-02,-2.264982078156800305e-01,-3.678642464381551985e-02,2.725111018928677575e-01,1.163823285751739572e-02,8.021706662709644515e-04,7.232134739602267756e-03,4.596694859599981808e-01,6.816946910471993748e-02,9.725616758425675856e-02,9.138768744698598512e-02,2.888894935738782824e-02,8.853678921052600750e-04,-1.931915345576310297e-02,-1.266409762243726755e-01,-8.602532642891143333e-02,-1.444605921004422366e-01,-4.475893555193841133e-02,-1.595524261753530071e-01,-2.351087723135302510e-01
4.883450601844908645e-01,-6.981525922744352686e-01,3.991004219459069052e-02,6.768195005243167472e-02,2.817951382539483629e-01,1.497893854620539200e-01,-2.057201202417923702e-01,-3.909635012605556237e-01,-1.516887495272919717e-01,-9.350517908992289629e-02,-1.069630161785172506e-01,-6.310513310317841240e-01,-2.756029587476209186e-01,-4.233500802599692303e-01,-6.305555618833177389e-01,-2.987030139259467254e-01,-1.870076934123736934e-01,-5.899488052127814693e-03,-3.472465571895232972e-01,1.067034651575239218e-01,9.890527165119872288e-03,1.854670614198909717e-01,4.952665128574725295e-01,-2.901573003946231188e-02,1.945328082820491911e-01,-2.067285969094279641e-01,1.058200411608768432e-01,-4.614055459382225277e-01,-9.194651939438322485e-02,1.257491283702835139e-01,-4.815298394848573360e-01,-2.463645471898435468e-01,-4.620404241604053608e-02,-6.000243633045496128e-02,-4.328582477785388183e-01,1.097652090574191032e-02,4.932701238104039709e-02,-1.978594881666150274e-01,-5.811202022047676219e-02,1.991492555109075635e-02,-7.078660379966809912e-02,-1.762988714671562818e-01,-1.559950130502074095e-01,8.373974774816234090e-02,-1.184125869821971988e-01,-3.683704510434345769e-01,-9.345443798384750478e-02,4.381423056834520338e-03,7.040356417277883472e-02,-7.184097709821854472e-02,-3.812053112277348776e-01
5.663218982426325709e-01,-2.175146722471261729e+00,7.055722329910626110e-03,7.688627445773525693e-02,2.801492609147376300e-01,-2.855738983749515469e-03,-3.511088052234104251e-01,-1.475135206130041843e-01,-4.295684447467916778e-01,-8.411112795099583150e-02,-1.131067361862394399e-01,3.565299220109029443e-01,-3.568337812800578823e-01,-4.036229187934342044e-01,-4.681797044745350522e-01,2.429031136496014043e-01,5.706440384079097816e-01,3.488619263010960259e-01,9.483559611962569802e-01,4.924569275658806089e-01,9.106284322830529021e-01,8.497881951467329831e-01,2.870355128201856898e-01,5.348073024027025779e-01,1.604846281012817788e-01,-2.072141284118590721e-01,-1.626543036253886854e-01,-5.625959085089003997e-01,-1.006195225484002032e-01,-1.285911193031715472e-01,-6.293502869355710461e-01,-3.914357869449375249e-01,-5.294851340915575078e-01,-1.412143297300290645e-01,8.102564698565799250e-02,2.958379547666514439e-02,4.911956396708874739e-02,-2.235232451442676904e-01,9.752799564943274158e-01,1.747700489159792758e-01,1.529221215421732727e-01,1.606783472413669811e-02,-1.214599044965738589e-01,1.051836739397644660e-01,-1.904630383795626880e-01,-7.251812327427036298e-01,-3.109769828879756504e-01,-2.982522512859149821e-01,-1.698087861968621340e-02,-4.483188051911543015e-01,-9.660825222472954055e-01
4.659587740706478964e-01,-1.940694303176803581e+00,2.742913547447745157e-03,6.563216226790451191e-02,2.348810053964449918e-01,-1.780691990339621769e-03,-2.996493585449545027e-01,-1.039985449868660594e-01,-3.759349293306692985e-01,-6.743728896282318030e-02,-8.995221693699119447e-02,3.440380562644784757e-01,-2.946458036111500589e-01,-3.448125519436366915e-01,-3.905016162532792268e-01,2.408985483730447796e-01,5.289849666360812996e-01,3.186006200963828472e-01,8.665170955737510061e-01,4.288827396732802777e-01,8.204992443922537459e-01,7.328939295615440885e-01,2.294995777321676145e-01,4.846520357117615752e-01,1.357856616422020712e-01,-1.782012037309035068e-01,-1.544033325309305538e-01,-4.870534358986228773e-01,-8.068249729468217335e-02,-1.221176847447334596e-01,-5.427528049302944302e-01,-3.502473343775004411e-01,-4.830950452449138122e-01,-1.271266740728502209e-01,1.051212690550265005e-01,2.755048773864876913e-02,4.347979622242516967e-02,-1.884738709158478576e-01,8.845341803036211870e-01,1.571607060445966708e-01,1.397930225814064953e-01,1.933761718863680895e-02,-1.008676470772783829e-01,8.798374709937917260e-02,-1.640473765555599817e-01,-6.348721852964702705e-01,-2.744632506373548830e-01,-2.733335592474988029e-01,-2.057148250472734183e-02,-4.028752237032504069e-01,-8.571881286127520649e-01
-4.328269762730665438e-01,9.955102745042143653e-02,-3.029607930155250178e-02,-3.916279607616914016e-02,-1.666560927181257312e-01,-1.156385027895003997e-01,8.358876074244254994e-02,2.796006758890365318e-01,3.582652833691651884e-02,7.055540161983202274e-02,6.238499931627344841e-02,5.741681392373092496e-01,1.359876587397391701e-01,2.374191248547106448e-01,4.069714919892821192e-01,2.862560561464658204e-01,2.676381780482123829e-01,7.658707092779191983e-02,4.755742438676054396e-01,7.247493111935866643e-03,1.672438940840903776e-01,1.437191429287960030e-02,-3.391135049805037438e-01,1.219844965148994542e-01,-1.221738691019638445e-01,1.147237149713845605e-01,-1.235590527650096415e-01,2.531957278853230742e-01,5.123410215047709271e-02,-1.283016276609384443e-01,2.545454510860836184e-01,1.142123145301821852e-01,-7.837492373611200380e-02,1.461980428199975007e-02,3.558883065312472560e-01,-3.759076218741972536e-03,-2.524600083683603211e-02,1.108281424617068578e-01,2.448084473757633495e-01,1.762052041604561178e-02,8.238837559673854727e-02,1.425434690193423670e-01,1.004984927879944284e-01,-4.703624983046687802e-02,5.645517670722148551e-02,1.421642261483088976e-01,1.071648816915274187e-02,-7.242912008622522102e-02,-6.064291521160634219e-02,-3.462263850927985165e-02,9.975746288061618228e-02
7.276216732360012429e-01,-8.298995372035967710e-01,5.773088740864509155e-02,9.562664499297558740e-02,3.932504410041796072e-01,2.237809074556803002e-01,-2.718514494919546665e-01,-5.488299246548412613e-01,-2.001632173428397332e-01,-1.377594291264827298e-01,-1.257906396407795224e-01,-9.662948588066608835e-01,-4.682532931819329836e-01,-5.914321847693525536e-01,-9.024562249344012521e-01,-4.485004266462865319e-01,-3.564129981796423929e-01,-1.484744964907850490e-02,-6.218733995916315704e-01,9.231354543865875895e-02,-6.697816115243176993e-02,2.404272607572042753e-01,7.309458445924722492e-01,-1.486809449398948102e-01,2.726542215639358169e-01,-2.698830660821392446e-01,1.896189257353398383e-01,-6.280322487136299481e-01,-1.159183522395484806e-01,2.154754564488203239e-01,-6.252012598863874171e-01,-3.208507079762337177e-01,2.197256665858782795e-04,-7.359322715610829013e-02,-7.280328918748207867e-01,1.334513625960626407e-02,7.692693423679133891e-02,-2.652829375718898652e-01,-1.567201775700118593e-01,1.708808826287310997e-02,-1.170497300936422097e-01,-2.641965359913098776e-01,-2.115019174465984919e-01,1.201543713083144949e-01,-1.519933467100164359e-01,-4.726718180522613277e-01,-1.086552709217078055e-01,3.692626950265259084e-02,1.088726035007594600e-01,-5.419121712613628183e-02,-4.546545080534831196e-01
6.475074793629610748e-02,8.108928076421858533e-01,1.547931098195922534e-02,-8.302096265119553176e-03,1.241662709573224284e-02,5.698768147220012459e-02,6.041146565930416434e-02,-1.208394864622605869e-01,1.505546410416775949e-01,1.694859876616896036e-02,1.131459019999997044e-04,-3.346135811136236593e-01,3.320641277250545309e-02,5.905843406683475988e-02,3.005173078003340204e-03,-2.208924358857454195e-01,-3.285880016250275482e-01,-1.594609923252889305e-01,-5.151692327641150815e-01,-1.479805228640081183e-01,-4.077141746818949142e-01,-2.354459858161408181e-01,4.898016834059040064e-02,-2.594450802000435874e-01,-1.213186685552982910e-02,3.095774385965143968e-02,1.143238576612813223e-01,1.178751822239116759e-01,-2.099530386728493039e-03,1.049113430208083730e-01,1.294967260906275952e-01,1.190500379877766357e-01,2.590061460437546037e-01,5.921639259438335468e-02,-2.081121874890887458e-01,-1.819111143808532088e-02,-3.394972439513026241e-03,3.302811378782852247e-02,-4.679895694784137472e-01,-7.609671233493585374e-02,-8.392628994052028779e-02,-5.488659759886540396e-02,9.410066798186534145e-03,-1.486729367203858988e-02,4.292364701386888054e-02,2.008963092202176726e-01,1.119831936536081485e-01,1.528718835966280665e-01,3.543584371960713242e-02,1.846795893581877346e-01,3.244816556559670384e-01
4.705319069818067468e-01,7.828513169482698153e-01,3.273704552612487217e-02,1.264348437529323917e-02,1.259588533244676567e-01,1.254497691134058568e-01,1.354038105866453047e-02,-2.898941654665809775e-01,1.347979766056196793e-01,-2.422666716372248730e-02,-4.461290734144433834e-02,-6.301710223804668498e-01,-3.618407925058009927e-02,-6.377537208061140328e-02,-2.050756252158280335e-01,-3.745312367211169891e-01,-4.730987010261687442e-01,-2.051129299054770261e-01,-7.685466887960578086e-01,-1.494740172691086666e-01,-5.071286401339812899e-01,-2.181724928848189637e-01,2.285740089312099654e-01,-3.269595035225416058e-01,5.066954714938039228e-02,-3.567904484597397841e-02,1.799925078933150846e-01,-6.128519597641450024e-03,-3.853787228426740208e-02,1.726049142172853545e-01,-2.895305599155758788e-03,6.442527049474254530e-02,3.064970761488653994e-01,5.772532296105277461e-02,-4.010490475811556155e-01,-2.224546709206746964e-02,9.193088658681861092e-03,-2.112957238239092025e-02,-6.041324415944119286e-01,-8.940190947088290374e-02,-1.282359473783908077e-01,-1.245452761862801544e-01,-4.126042834103765822e-02,1.072390634747011698e-02,1.085083172970359965e-02,1.273840685953431251e-01,1.102566504210222009e-01,1.984754466085242031e-01,6.863270700222444398e-02,2.073549716965947531e-01,2.704351483845359172e-01
5.571310842749350734e-01,-1.712599911036055911e+00,1.070338019705759092e-02,6.905237809960829143e-02,2.435010894244657997e-01,1.448234713580766851e-02,-2.929711878275137460e-01,-1.674058139762996666e-01,-3.471970565689747046e-01,-7.859553496812178575e-02,-9.810245588604435407e-02,1.237922237753266014e-01,-2.899479740040154518e-01,-3.949851300226816520e-01,-4.589056276201808338e-01,1.132995449216129685e-01,3.652999091447564073e-01,2.461895832818215002e-01,5.954226704642330281e-01,3.619227953415749544e-01,6.517729747222252845e-01,6.263600888984802717e-01,3.107336479346456959e-01,3.848798642555834038e-01,1.593284202843108233e-01,-1.879436688455666526e-01,-7.936970452334168868e-02,-4.833033366163576594e-01,-8.236901991255447808e-02,-5.826104538848952269e-02,-5.357719362802471075e-01,-3.210068633309755004e-01,-4.003696095545042910e-01,-1.021080557020359880e-01,7.309680821611284039e-03,2.574272732969506983e-02,4.946290783619035347e-02,-1.884048829412659221e-01,6.966942582723307797e-01,1.310337254179704813e-01,1.028927197467027488e-01,-1.681156849546334639e-02,-1.130463806530122711e-01,8.987906388336017183e-02,-1.569259277876042524e-01,-5.857480051965361367e-01,-2.282074168057768582e-01,-2.049519345223237976e-01,4.834486449821938196e-03,-3.309327559405246810e-01,-7.679714044600061129e-01
-1.428688113331499365e-01,5.825424395539792188e-01,1.616346047277963938e-04,-1.874410243645937765e-02,-4.397260659556129214e-02,6.349603568254266230e-03,6.678274140870431308e-02,-2.996701182298312782e-03,1.130698379543758902e-01,3.701367449492325851e-02,2.119821476705628302e-02,-4.598795054977405233e-02,5.798350347449168773e-02,1.193454832361020429e-01,1.251374225030450760e-01,-5.702675439861457779e-02,-1.383996248810816787e-01,-8.265459837726776837e-02,-1.958767837899248743e-01,-9.874153060902347845e-02,-2.231654804841519679e-01,-1.516400345803237404e-01,-7.491367125735418075e-02,-1.402415082826205250e-01,-4.893127749121189973e-02,6.115392217611394926e-02,3.761249307322701851e-02,1.571375037995564605e-01,1.368122872729212770e-02,3.024414177209183707e-02,1.675821317002901267e-01,1.151751882985428271e-01,1.526052813218956861e-01,4.177205173647716846e-02,-3.440415470480322202e-02,-1.283380683868093688e-02,-9.648654780429193056e-03,5.653314492468861086e-02,-2.383973675544830695e-01,-4.598929041412093410e-02,-3.404609246865575312e-02,7.595936971879234390e-03,3.839319837720710227e-02,-2.399362808872902708e-02,4.701194371930788457e-02,1.809657686928787257e-01,7.801561602568937714e-02,7.686129934651979301e-02,4.812739492193593947e-03,1.148002139065960464e-01,2.542261505376935404e-01
5.699496429713061252e-01,-1.302839930914671651e+00,2.598639934712183505e-02,7.309110027276152777e-02,2.594004433195900572e-01,7.190363313980852045e-02,-2.589855615957008528e-01,-2.644570104824019441e-01,-2.741509507803139289e-01,-9.126039177632506993e-02,-1.152681922394718089e-01,-2.839102402204073394e-01,-2.676991348044711061e-01,-4.296473488786815009e-01,-5.599256060185394679e-01,-9.807985492358699264e-02,1.076108785928266559e-01,1.256255107166458773e-01,1.445556045641906706e-01,2.497756766870261880e-01,3.627578791819685566e-01,3.953871107855819189e-01,4.183395507535600522e-01,2.086169402843281173e-01,1.872298033467862388e-01,-2.093745921312558100e-01,1.919693217759677745e-02,-4.924955792303171154e-01,-9.127218194332427370e-02,2.927127851542368417e-02,-5.481376038066544387e-01,-3.050979769395189556e-01,-2.529767370845760199e-01,-8.488924191439423117e-02,-1.915710524368519907e-01,2.075464151185538175e-02,5.105258705676200132e-02,-2.069220695583714187e-01,3.463621220158836778e-01,8.409299027223507417e-02,2.718587045087383566e-02,-1.038962965246353481e-01,-1.482657149873739810e-01,9.058789900305148912e-02,-1.471654882178550228e-01,-5.119218572071596585e-01,-1.728459178327971801e-01,-1.058418681126939154e-01,3.899399427961791620e-02,-2.187949878458876340e-01,-6.220629556858446874e-01
-4.227598811013508762e-01,1.981154198681918388e-02,-2.951182212192210788e-02,-3.424919701381107240e-02,-1.480488611122567633e-01,-1.094807750281675263e-01,6.398112511811428205e-02,2.563633583648591840e-01,1.885380153482802898e-02,6.535939933702344939e-02,5.620495266701727721e-02,5.577929965300445492e-01,1.131171270296810472e-01,2.074374409703015065e-01,3.680373341177893276e-01,2.808278534033909479e-01,2.728467237347151908e-01,8.394682567083126823e-02,4.837409529421592413e-01,2.206144558213118945e-02,1.886681824473148417e-01,4.079346431195562950e-02,-3.116029832493868446e-01,1.310546965500965777e-01,-1.098914492820075861e-01,1.000193364508845661e-01,-1.233497881108080868e-01,2.205817206917718987e-01,4.654431514726753427e-02,-1.245577429815897530e-01,2.222140231260639476e-01,9.542367472368239179e-02,-9.209267609722576742e-02,9.994235598152314756e-03,3.416077733028276553e-01,-3.976401977447900464e-03,-2.165366103263871231e-02,9.856697810720813080e-02,2.653614060978345957e-01,2.234755693616205519e-02,8.325182099482118792e-02,1.363180943514651078e-01,9.205444712873989133e-02,-4.033922815851778004e-02,4.797670736356888371e-02,1.109409717601296808e-01,2.435588019137499235e-04,-7.984070906110694865e-02,-5.936241989612419528e-02,-4.785769335619781406e-02,6.123085416261356967e-02
3.891147677923421644e-01,-1.204800807863198459e-01,3.285817437639751426e-02,4.034559855716288168e-02,1.992159815859570193e-01,1.237192024395539630e-01,-1.084608536949680790e-01,-3.140310018396093028e-01,-3.294708640417009365e-02,-4.884910673300831702e-02,-6.298374139011914119e-02,-5.277507676800660130e-01,-1.590999194203159273e-01,-2.460477581498513033e-01,-4.091995327095556689e-01,-2.702518475613104321e-01,-2.484303234424763973e-01,-6.014213565268600875e-02,-4.218239308191977788e-01,1.836230632473632995e-02,-1.432271902335266467e-01,3.984343743840106783e-02,3.401161264974226772e-01,-1.140892704090299414e-01,1.211379978695276138e-01,-1.131272467431741063e-01,1.192032771388104734e-01,-2.453679361515772039e-01,-5.888264787929408522e-02,1.256463537506436468e-01,-2.493225128918477862e-01,-1.100063535201586118e-01,7.628110948202927732e-02,-9.731010963614521517e-03,-3.497428127697155831e-01,1.324373333948073187e-03,3.183930132098874988e-02,-1.084115084818940700e-01,-2.154022880352307601e-01,-1.609473172756619927e-02,-7.373676412095957200e-02,-1.305886282550808020e-01,-9.010851665264986432e-02,4.983494994437516479e-02,-5.923718790273685419e-02,-1.563683706475300639e-01,-1.292445993295966537e-02,6.615437242129754147e-02,6.169214026667147605e-02,2.915608998994034112e-02,-1.104928435081816013e-01
-5.892965949203060605e-01,1.238840728937269153e+00,-3.144255469700840688e-02,-7.566791632415349744e-02,-2.529689596156195486e-01,-9.380787341351243258e-02,2.432715449240533401e-01,2.906869762093725607e-01,2.679708680846595303e-01,1.230420352845438964e-01,1.309552656262768788e-01,4.835084349930091063e-01,2.722511222164134548e-01,4.629775755865546127e-01,6.329746930817539141e-01,1.923554353322538546e-01,-1.376766706781532706e-02,-7.712946770906509153e-02,4.220574005940207207e-02,-2.045105290707000256e-01,-2.690040906811962951e-01,-2.909161343885986462e-01,-4.768245975001171866e-01,-1.491572389912015073e-01,-2.073984303877134394e-01,2.371678171073899888e-01,-4.734552835389244790e-02,5.412546291970506962e-01,9.509424487770476442e-02,-5.852761491639481978e-02,6.023969244639999499e-01,3.302270667973029594e-01,2.209221119626693097e-01,9.907743642407788875e-02,2.992528519551599375e-01,-2.170130816800871013e-02,-4.754895841661976180e-02,2.366778545175056425e-01,-2.217977803446653240e-01,-7.129728223018715061e-02,1.026002499250576981e-02,1.576068110809157874e-01,1.846316398543682291e-01,-9.212508215779573184e-02,1.493226872334184885e-01,5.151286492748196055e-01,1.714141440458215315e-01,8.093564052483698257e-02,-4.999547018565896062e-02,1.932574614547438452e-01,6.099833470697606508e-01
-1.229586617125297127e-01,4.799246856526722671e-01,-1.571471229341886910e-03,-1.789115749720250961e-02,-4.548173032855073322e-02,-1.706895381749925231e-03,5.813867234566025971e-02,1.185932933187413760e-02,9.393641028141649918e-02,3.412022910071106641e-02,2.139050858533719790e-02,-4.588721530749482157e-03,5.301602627315038507e-02,1.115879519784886559e-01,1.239218070010015826e-01,-2.971041208228451455e-02,-9.823391529855345083e-02,-6.207677620512062205e-02,-1.342247754243638402e-01,-8.042346991725551897e-02,-1.717748919352963255e-01,-1.209179013209710912e-01,-7.915103752634095047e-02,-1.083536624116731850e-01,-4.688464412138051984e-02,5.728970513184631491e-02,2.372441658716661211e-02,1.415170818133109076e-01,1.408196156688855914e-02,1.784547278646425247e-02,1.520854670442401968e-01,1.016891524007334929e-01,1.209242335945156926e-01,3.470811650138996146e-02,-8.662175182897302594e-03,-1.074763866225124896e-02,-9.074708430917732827e-03,5.223937950338559261e-02,-1.810506342869227236e-01,-3.562772874334002582e-02,-2.250492693694943272e-02,1.323169848553964328e-02,3.801072597971665024e-02,-2.211909355050682702e-02,4.115376016414698523e-02,1.554374998198046198e-01,6.417501595512545287e-02,5.806136135418470817e-02,-5.839072657233049506e-04,9.193575837151510277e-02,2.121285637119439682e-01
-4.735469940556329971e-01,8.243517675746137030e-01,-3.173221170757055398e-02,-6.423665428371293229e-02,-2.319459726001167899e-01,-1.147788433054603985e-01,1.880567718481765682e-01,3.092209462988088631e-01,1.792319562336981975e-01,1.096508236962970423e-01,1.083951350063598884e-01,5.571091626373092520e-01,2.349761108909314555e-01,4.028118289327160539e-01,5.824130415870765187e-01,2.478317472706405844e-01,1.123844599323081950e-01,-1.343620151365788884e-02,2.460457723109683303e-01,-1.184376387635464739e-01,-8.671300005045019799e-02,-1.717322024224564314e-01,-4.472849105741951714e-01,-3.346394821085566657e-02,-1.845234046363962155e-01,2.055134826160643358e-01,-7.626921944928416464e-02,4.606001042193758055e-01,8.153546783458140434e-02,-9.135844784876370750e-02,4.945857515430557849e-01,2.621126206297467176e-01,1.056184191262311001e-01,7.458497718640914875e-02,3.547866875246820095e-01,-1.447617012373673615e-02,-3.949590114590299100e-02,1.986259749863554247e-01,-2.623703103748831200e-02,-3.506328870573182516e-02,5.216859371573481785e-02,1.645457805399599127e-01,1.618657339331936729e-01,-7.813829275738030933e-02,1.182006249630803835e-01,3.858916874606887482e-01,1.133266157788688361e-01,2.272714234798421662e-02,-5.800171946003351148e-02,1.063138038583341521e-01,4.294830501716595528e-01
4.947982670812021699e-01,-5.660748842637428058e-02,3.791025952497804885e-02,4.510269777584678674e-02,2.237241798053492547e-01,1.453769915510178534e-01,-1.124406769696342789e-01,-3.590240405015607816e-01,-2.542794662418209478e-02,-5.768611638204396153e-02,-6.792767754632930699e-02,-6.314789990406233233e-01,-1.772234253785700819e-01,-2.676073882240181945e-01,-4.615113507342842869e-01,-3.229087781691888370e-01,-3.139062789638651374e-01,-8.012070738090874833e-02,-5.323764308935454714e-01,2.645828331783578284e-03,-1.999373485606234513e-01,2.175610153685873446e-02,3.896552379784559150e-01,-1.546585673791412707e-01,1.336477672101848979e-01,-1.214932192689279072e-01,1.495116066339398364e-01,-2.642538867432270289e-01,-6.589852199390935916e-02,1.513870492561647241e-01,-2.652062440698363388e-01,-1.119820875414531125e-01,1.138131416039719623e-01,-4.584914321541111275e-03,-4.157593243784464265e-01,1.079798640751580786e-03,3.504137829290613487e-02,-1.170300382344529183e-01,-2.870597435636043637e-01,-2.467992980897700667e-02,-9.064963626922349638e-02,-1.528297179346551626e-01,-1.006621460232096504e-01,5.504149889091008996e-02,-6.238484748180261191e-02,-1.547004795934016630e-01,-3.449879997878390475e-03,9.012947741870826202e-02,7.295959907826111979e-02,5.222943800560000960e-02,-8.832975531337614039e-02
-2.262911269704222239e-01,1.046549956124122716e+00,3.260141601302188417e-03,-3.050763094968266323e-02,-8.415208767580419080e-02,1.245449499000937307e-02,1.287671011080697425e-01,-4.599824478371545688e-04,1.996645687418542314e-01,4.407921494341786317e-02,3.437992762589926060e-02,-1.697881406458111864e-01,1.127955347198577041e-01,1.867783092262869649e-01,1.891154929057005940e-01,-1.414109202135948595e-01,-2.856079882415282767e-01,-1.652116120621145712e-01,-4.374482289398042290e-01,-1.962525720258726791e-01,-4.315665519762109104e-01,-3.201219991964668332e-01,-1.024725738406008363e-01,-2.661773733125486485e-01,-7.288565259130150298e-02,9.351283673014533504e-02,8.335525174195901332e-02,2.545956951367561172e-01,2.683545166118547418e-02,6.822012159606269388e-02,2.766059385831929340e-01,1.929825807806905824e-01,2.791824367826720721e-01,7.178422870809869627e-02,-9.363539754599922715e-02,-2.020963476820596127e-02,-2.018889377382587780e-02,9.003030444029569423e-02,-4.737354566975624515e-01,-8.543184466087395956e-02,-7.260409030229421357e-02,-8.207542061711335657e-03,5.362987521535221569e-02,-4.143480998868148690e-02,8.130705232190349463e-02,3.194375873712977931e-01,1.415963612176886210e-01,1.503837954285259237e-01,1.319003989599601412e-02,2.124276005485414565e-01,4.517946402485698565e-01
-2.251555418425704377e-02,-1.169875373787597622e-01,1.398508015288268394e-03,5.627037128379864563e-03,3.607438756059062196e-02,1.140669995017262912e-02,-3.058165146625865458e-02,-3.480338595191096590e-02,-1.837676409396678950e-02,5.270952703563769499e-03,-6.558061841770242498e-03,1.567836234367431941e-02,-2.602290746474404670e-02,-3.387874544527277876e-02,-3.798531156763509942e-02,8.951853700013563675e-03,2.611298359591521581e-02,2.275344088328796685e-02,4.976674301112873205e-02,3.330915089245937294e-02,4.600786684195901782e-02,6.256061367848700372e-02,2.879427275933865368e-02,2.560533477107751130e-02,1.216100332122942336e-02,-1.329803772009569875e-02,-3.497334886514605161e-03,-3.201837709232659840e-02,-9.402372254340108856e-03,-5.119996851183496005e-04,-3.476803682557241121e-02,-2.054308535079810843e-02,-2.336762023889103410e-02,-3.776886478299563716e-03,-2.824697122518480858e-04,1.042269267056524564e-04,7.669596069742504185e-03,-1.202629441045592606e-02,5.011446034859774745e-02,9.078870381615290752e-03,9.334555202489457082e-03,1.121717459190729217e-03,-2.741340399077665975e-03,8.034738993167242493e-03,-1.308349082165612132e-02,-4.350810418138004870e-02,-1.436585769927351160e-02,-1.397139257621615727e-02,2.695983907574527137e-03,-2.284590726017137266e-02,-5.351135376252633830e-02
2.118370237602331119e-01,3.257066058805481723e-01,2.062087305215449737e-02,1.142391717638219922e-02,8.908029872514088010e-02,7.850511093644151062e-02,-1.611806710600015291e-02,-1.797539171709758576e-01,6.069460732817055088e-02,-2.540497579321468035e-03,-2.344434706541687063e-02,-3.422303384561680151e-01,-4.239790672419574413e-02,-5.843106386508356564e-02,-1.485164721871904681e-01,-1.973475823868500734e-01,-2.360987566026678253e-01,-9.143516104025362079e-02,-3.807356656427213770e-01,-5.237255110877733766e-02,-2.324227089965366644e-01,-8.287804763582896916e-02,1.500533387617918879e-01,-1.560950545364842845e-01,3.915934730791630070e-02,-2.469777761225054255e-02,9.794943287784640962e-02,-3.418242896066647774e-02,-2.511312024178543809e-02,9.219661626657567333e-02,-3.513555548218811470e-02,1.383760782013670684e-02,1.474219791811993419e-01,2.441389439970289774e-02,-2.224310411250756958e-01,-6.771645096180983064e-03,1.190707284973979013e-02,-2.583238720729991167e-02,-2.882304785167564831e-01,-3.960022180529040176e-02,-6.234468768684698486e-02,-7.173919346055376844e-02,-2.750467140407907018e-02,1.289941219345804024e-02,-3.972288910049388312e-03,2.997096429297935877e-02,4.488041333290165164e-02,9.408796973618695214e-02,3.887541587051769609e-02,9.317819121922947534e-02,1.058244045645200526e-01
5.734104891500513279e-01,-7.918101022307164616e-01,4.587825564438501730e-02,7.967382487489071963e-02,3.215095003984732580e-01,1.739773490840597625e-01,-2.368188553727595957e-01,-4.467838532062899937e-01,-1.762639229002228025e-01,-1.098053755713415958e-01,-1.198532691183767096e-01,-7.395165172948524601e-01,-3.359180770134150285e-01,-4.885782412569119604e-01,-7.312564759852907548e-01,-3.483250526725593099e-01,-2.285352260009424763e-01,-6.591334457911832492e-03,-4.173181638526738957e-01,1.128891788898702397e-01,8.624618954829863958e-04,2.130564555049604403e-01,5.768255138481792610e-01,-5.062420346307278801e-02,2.245241651621105450e-01,-2.364206665380120531e-01,1.280595174354756671e-01,-5.315936944525451180e-01,-1.040227911183303489e-01,1.503538565290045703e-01,-5.510703401592074169e-01,-2.806416989561912323e-01,-4.558483563920931458e-02,-6.863550753744207533e-02,-5.212058569562104671e-01,1.278391853491507753e-02,5.909926332372449076e-02,-2.285847937863872137e-01,-7.366470460767227113e-02,2.199534383938995738e-02,-8.553567924037566716e-02,-2.077185078180905364e-01,-1.808169553965077170e-01,9.622242881394785230e-02,-1.343219418637892071e-01,-4.205831646043061145e-01,-1.055724850743825494e-01,8.228569298327749471e-03,8.321277185760864170e-02,-7.646650639992685905e-02,-4.317891165584378244e-01
2.720715507986543602e-01,2.128314098750777872e-01,2.301960153045597493e-02,1.855004175554822443e-02,1.188737665714206110e-01,9.148667424350145905e-02,-3.848637102640842245e-02,-2.143862687041476756e-01,3.865650781865100083e-02,-1.262295116956542798e-02,-3.396163728754684336e-02,-3.882873846482612912e-01,-7.106366722672480263e-02,-1.048678540121419506e-01,-2.142821171261082569e-01,-2.156103974373383692e-01,-2.391107604988713387e-01,-8.337427970285760104e-02,-3.894174474166567923e-01,-3.255301832883836927e-02,-2.088459556178453858e-01,-5.068585246855673160e-02,1.979881713707501989e-01,-1.446405726959939797e-01,5.973491395446405006e-02,-4.747221202140920054e-02,1.036242430097451400e-01,-8.682635166039159857e-02,-3.495841395931956197e-02,1.015715498399828581e-01,-8.944396334649377944e-02,-1.708379814731605592e-02,1.296635001167575352e-01,1.677911060799475509e-02,-2.528075592263980820e-01,-5.629735738084136638e-03,1.810214564961759934e-02,-4.574823947284478026e-02,-2.697490359153201234e-01,-3.400074322453295467e-02,-6.409209360291430457e-02,-8.695410546556407716e-02,-4.257529115059306007e-02,2.302819004569573585e-02,-1.835685161701550161e-02,-1.678172027321861090e-02,3.122691720352059955e-02,8.757400905807030678e-02,4.482480370036191070e-02,7.661381073399696484e-02,5.139441365417300039e-02
-3.502227480392101633e-01,9.635738066766007526e-01,-7.267155254148218932e-03,-4.103685015432913946e-02,-1.312775847360258819e-01,-2.297401933401289204e-02,1.457592138170678009e-01,9.054059373208929451e-02,1.918050895233024689e-01,6.354648451276853627e-02,5.510690482294395426e-02,5.676620873855878213e-02,1.418464857929128131e-01,2.539637530253917586e-01,3.046779354708371579e-01,-1.858938257452268095e-02,-1.580574340330316296e-01,-1.161774895323958168e-01,-2.201503257435957484e-01,-1.740954992598625350e-01,-3.227960400070718494e-01,-2.707285621980425883e-01,-2.110989152172435268e-01,-1.967670634879549463e-01,-1.083512601469571179e-01,1.251926185995826390e-01,2.692347443113542876e-02,3.091129832600451044e-01,4.297733361546964004e-02,1.524925282726158869e-02,3.365754002430809688e-01,2.097792860356942068e-01,2.219907874415638915e-01,6.701775918696928347e-02,3.594712306466570084e-02,-1.953757366612366222e-02,-2.597912614207371559e-02,1.195634866670880758e-01,-3.315133404583904264e-01,-6.881220719645583794e-02,-3.841387026330558840e-02,4.204391217950900761e-02,8.390448351517668102e-02,-5.255436582058403000e-02,9.217671717557213151e-02,3.348973328629822888e-01,1.275477028702899363e-01,1.033429542580745347e-01,-1.002331089086478701e-02,1.756635418450375741e-01,4.381243390280935568e-01
