-1.915136629931216417e-01,1.800358370135370367e-01,-7.102998668072987680e-03,-1.427577715814131593e-02,-1.201580275228720102e-01,-7.447042575326361102e-02,6.301467342353918311e-02,1.695998509062638104e-01,2.028574878904956455e-02,2.337906826318921633e-02,4.243178827789997193e-02,2.179558871741886228e-01,9.069048396711736071e-02,1.371587790630302006e-01,2.322374644404187338e-01,1.143984611096059839e-01,4.306617514636165017e-02,4.016568498676625909e-03,1.412909822514085423e-01,-3.273980101320769082e-02,4.301510019186682160e-02,-3.949734729314042375e-02,-1.355965922790390021e-01,5.553421306382812922e-02,-6.526306838761436468e-02,1.000624272256902397e-01,-1.232797199964540819e-02,1.827121632223990821e-01,3.911038802094349981e-02,-2.815447279709682935e-02,1.811264323542334520e-01,8.800278163637299811e-02,1.271958474302712500e-02,3.758121631036729499e-02,1.710084348828443956e-01,6.529794255012694344e-03,-4.731615573506113906e-03,6.197347375138887587e-02,6.529709001864129891e-02,8.279819560523222349e-03,5.704663889149317463e-02,6.197004259117338404e-02,5.823796877949594802e-02,-2.167696851847489975e-02,4.700764549058154829e-02,1.323494877774497869e-01,4.100842666351582622e-02,3.339313953630435473e-03,-1.908364120381720805e-02,2.201397356921965323e-02,1.269911660065110581e-01
-3.606493333198175222e-01,9.916715581982650241e-01,1.780753726869770473e-02,-2.516142769287761996e-02,-1.636078543266024088e-01,-1.388009717508895645e-02,1.791969978759925253e-01,1.014830982959791655e-01,2.367072310170384164e-01,4.822140866510111340e-02,3.760758515906252597e-02,-6.834533175037715846e-02,1.852743109860093551e-01,3.071355292491533273e-01,3.385166283908329632e-01,-9.634483902948448586e-02,-1.704079478317042096e-01,-1.418154653618504124e-01,-3.210866022596141067e-01,-1.564948989048902672e-01,-2.924373147717998500e-01,-4.053104737143511938e-01,-1.777635690307304006e-01,-1.961507226024905015e-01,-1.238950131805441335e-01,1.776162559224416793e-01,5.619508641797947568e-02,3.157788599152219211e-01,3.150563365654809184e-02,2.621904343772160466e-03,3.179878984149602239e-01,1.676775154803815948e-01,2.168531563903283443e-01,5.495062581375034089e-02,-3.275425454419551158e-02,-2.916351366473893519e-03,-2.414640196365855709e-02,6.224437474501239020e-02,-3.668385091137442156e-01,-4.899051640180766831e-02,-2.858338775659213706e-03,3.373372564747077144e-03,7.559446728910945712e-02,-4.559546894868620609e-02,1.029258501724717861e-01,3.334965187573729062e-01,7.987533212133242355e-02,7.065628596711366616e-02,-7.210091994073884042e-03,1.584395880392426015e-01,4.762821400390258031e-01
-1.453737046838358415e-01,7.516903737425807697e-02,-3.827001211707624102e-03,-6.733630870019034244e-03,-5.733922377407534021e-02,-3.649770514427656820e-02,2.903783882766158495e-02,8.516760679026148806e-02,6.938637525634465744e-03,1.190226949054077298e-02,2.181643713056715186e-02,1.120930175662335354e-01,4.279011084187787917e-02,6.517476918623921200e-02,1.122890243420274631e-01,6.004461848564204146e-02,2.463533972912439890e-02,5.273936423542761529e-03,7.697881904654037266e-02,-1.355035346443866050e-02,2.689887856817735692e-02,-1.209090002091248520e-02,-6.500064835428495669e-02,3.169442249390727606e-02,-3.075065699658125276e-02,4.847156462203902616e-02,-6.671025400972676635e-03,8.770158763001205393e-02,1.939534751851787475e-02,-1.392160903862946914e-02,8.740064226541108261e-02,4.210362639302191873e-02,3.349965715691388853e-03,1.842030918601086226e-02,8.724106059598835117e-02,3.533297561780229454e-03,-1.561487975573295182e-03,3.069586690763231179e-02,3.973716713931532002e-02,5.073475946341159983e-03,2.917921259619682753e-02,3.153939268858241968e-02,2.873539389571036495e-02,-1.003472488525261608e-02,2.226440490733756425e-02,6.181715946650947341e-02,1.968388680407284763e-02,4.923151092314078867e-04,-9.410502129656101236e-03,8.763349179776950409e-03,5.698246487645938774e-02
-4.931926198415636509e-01,-1.590010896833723292e-02,-2.334590327393492454e-02,-2.169287946868453040e-02,-1.977835511441782268e-01,-1.559374558789473897e-01,6.570775991951872952e-02,3.259188463813695313e-01,-4.645541557585344816e-02,3.739685495993913533e-02,7.660393539764376314e-02,5.109101860331076717e-01,1.275348039981533121e-01,1.612979159007901786e-01,3.743753893722247539e-01,2.880047295469931878e-01,1.649268004502723317e-01,6.270439967321810026e-02,4.499688298742521297e-01,-9.558172718165981741e-03,2.100404754703974752e-01,6.776936313331129169e-02,-2.306995304983393003e-01,2.000741679058895550e-01,-9.124393335046904197e-02,1.363872533133736187e-01,-5.933547753803886105e-02,2.694485360493226178e-01,7.294973676672969476e-02,-6.647090035534429509e-02,2.587986634415351817e-01,1.214211013528651295e-01,-6.674082829811261997e-02,5.643171235303551247e-02,3.878269711239699102e-01,1.397133116994771045e-02,-4.657636706010508782e-04,1.063988639864314883e-01,2.864645936036983587e-01,3.783983995594810551e-02,1.220763104571971069e-01,1.320555606086137312e-01,9.214612916842801482e-02,-3.056446872980804474e-02,6.151840674286791072e-02,1.532498897386232739e-01,5.436331897344764269e-02,-2.347578975488198022e-02,-4.023167859830591164e-02,-1.913105990199593862e-02,7.670761578360574262e-02
4.911512647251103925e-01,-8.904987684814797966e-01,-2.055331993275926871e-03,3.555378755778888789e-02,2.564819104494617807e-01,9.765595102113032444e-02,-2.037293398460558180e-01,-2.811198342232368863e-01,-1.917966904770488645e-01,-6.282084702979107149e-02,-8.508182175975030626e-02,-2.544058070229981983e-01,-2.441747473878402297e-01,-3.821368287218221416e-01,-5.289317317207665736e-01,-9.610738174575764181e-02,5.369699020971790276e-02,8.662454018697329783e-02,2.528038118467470022e-02,1.453512591529924070e-01,1.315323592787390194e-01,3.148784702283841108e-01,2.973076435499290016e-01,5.513634775285896489e-02,1.669366752172958268e-01,-2.466781447848968023e-01,-1.741371969420840368e-02,-4.490850837882671698e-01,-7.438142067652955824e-02,3.504483530383391970e-02,-4.545039893934170183e-01,-2.237569749752750525e-01,-1.599177530446275475e-01,-8.704437602399910101e-02,-2.078621542543334089e-01,-7.164557302529859888e-03,2.206325307117276702e-02,-1.275691158328460806e-01,1.510138583826788894e-01,2.103715417588985018e-02,-7.343758413791076634e-02,-8.639566046821489653e-02,-1.288086146446616176e-01,5.803977665215514364e-02,-1.303316817949142226e-01,-3.980919519360947012e-01,-1.083371229128703983e-01,-5.057689060182105067e-02,2.983655345599364045e-02,-1.331300689515043378e-01,-4.811278786127747842e-01
-6.478998162999893839e-02,2.615064762089842620e-01,6.802784915670908976e-03,-4.745531373027900117e-03,-2.778555733943863584e-02,8.490610072392141758e-03,4.023903760722361694e-02,1.052829828440007267e-03,6.510581201086890202e-02,9.804761789959245966e-03,1.619369363489365837e-03,-5.796068688542820035e-02,3.548912879715734187e-02,7.052816860048657932e-02,5.939191561368561967e-02,-4.942535130128809795e-02,-5.738644717667206602e-02,-4.280880385640147001e-02,-1.185544181147732828e-01,-3.867818142437775414e-02,-9.226626795615161525e-02,-1.097729999076109547e-01,-2.839248324687623434e-02,-6.827682747111861461e-02,-2.501606279585939785e-02,3.708900799485798094e-02,2.012016192543157264e-02,6.113341516273082532e-02,1.667855430601900045e-03,5.450483531113790858e-03,6.052872648680074352e-02,3.547169144683560982e-02,6.259897200778540005e-02,1.020290045891282180e-02,-4.016236794949090000e-02,-1.963247561077019910e-03,-6.618996533168402044e-03,6.901504567642393305e-03,-1.181345099555455719e-01,-1.578374344243223953e-02,-9.496739644550790047e-03,-9.337920463075516722e-03,1.241576000544701054e-02,-9.502487265749074222e-03,2.168783167205460410e-02,7.342684449739614316e-02,1.609718415736490979e-02,2.091072970143339690e-02,1.308693308828273597e-03,4.251590219735204568e-02,1.190057733598842149e-01
3.524697412900246740e-01,-8.860166255352309728e-01,-1.399429549554928598e-02,2.431430898435020180e-02,1.638222716322050299e-01,2.531673622851756192e-02,-1.668348214169869115e-01,-1.198009194440363273e-01,-2.074827677492010469e-01,-4.479531467019327862e-02,-3.968549539358905143e-02,2.022388375379548242e-02,-1.756742079357211384e-01,-2.906153193477734598e-01,-3.340312552969680882e-01,6.241736633581872890e-02,1.387025918374721611e-01,1.217692183272967438e-01,2.516891711362823081e-01,1.411510384690249642e-01,2.437289375004025593e-01,3.578408857738383797e-01,1.780845681450646534e-01,1.595691121376004995e-01,1.185750123181167348e-01,-1.711204387604486621e-01,-4.541365141306879377e-02,-3.041824704143227809e-01,-3.449480768503299100e-02,3.264663386761440696e-03,-3.056624373941625450e-01,-1.595530547160317614e-01,-1.888443282844170790e-01,-5.366006425961556553e-02,-1.549106270689118436e-03,1.177379703984912998e-03,2.210624024843573995e-02,-6.445894531291332386e-02,3.041681320223156293e-01,4.059765907685817382e-02,-7.613849008292162754e-03,-1.354647045534536874e-02,-7.517480194012393646e-02,4.327104242247189342e-02,-9.730509278585905419e-02,-3.110681138247831101e-01,-7.571372654508388977e-02,-6.099249452417232487e-02,9.883512066403681712e-03,-1.400984552711920517e-01,-4.332504082427321435e-01
-1.805157964057740316e-01,8.028269256805492526e-01,1.977049569894263892e-02,-1.544885131716784189e-02,-9.222596364937943325e-02,1.932521339845057889e-02,1.276419788082413798e-01,1.137342925703030763e-02,1.993142330465166312e-01,3.016822550018671834e-02,9.976056688803646572e-03,-1.655358829268107346e-01,1.184329375366899029e-01,2.116514937037495547e-01,1.925649515343590135e-01,-1.430139593981510360e-01,-1.739717251805932008e-01,-1.308455922466962296e-01,-3.547451184376982924e-01,-1.229851898098461571e-01,-2.811116606274380314e-01,-3.401532331512495122e-01,-9.344733161801113686e-02,-2.021456374468320327e-01,-7.954362168324376203e-02,1.141028082075630640e-01,5.966522284518620961e-02,1.969229491386889075e-01,8.486847775684976808e-03,1.593636434305066227e-02,1.974253749144526393e-01,1.116716718292310867e-01,1.887872304434696780e-01,3.271026669153636462e-02,-1.102539522544202233e-01,-5.732487296668228698e-03,-1.950582040885326732e-02,2.577016953462463872e-02,-3.573354561593193313e-01,-4.770784643783863160e-02,-2.723554831839383739e-02,-2.509513835255335057e-02,4.037840614908996123e-02,-3.033233352548439857e-02,6.906910219491614600e-02,2.337837159732786829e-01,5.212336801930947394e-02,6.360882410225980610e-02,3.114903283918216224e-03,1.313048695116911246e-01,3.667836651565871131e-01
1.632909518216381362e-01,4.649400270595882567e-02,1.133851090563434312e-02,8.653930505820073976e-03,8.295197051231031904e-02,7.137504094121356613e-02,-2.325162755565950146e-02,-1.435576898708889604e-01,3.327343221072092544e-02,-1.126034953273767104e-02,-3.378728383230795995e-02,-2.261713362315193598e-01,-4.982280716082741756e-02,-6.090255853033049033e-02,-1.514982440038383504e-01,-1.326906808828698103e-01,-7.940369567387987881e-02,-3.452356844810451630e-02,-2.083016468369855989e-01,-1.279499210677271658e-04,-1.047583350616481668e-01,-4.646943697811845714e-02,9.403348994982306530e-02,-9.753909136365644661e-02,3.663078590677264212e-02,-5.518082828870376350e-02,2.686575192941205448e-02,-1.073837017140231304e-01,-3.185602734466790043e-02,2.844897764570431323e-02,-1.059524666175828689e-01,-4.683128025312034010e-02,3.735220413102026404e-02,-2.317905419322148150e-02,-1.736023728305851332e-01,-6.766274127182251782e-03,-5.313007361415701853e-04,-4.637899833471752914e-02,-1.429396562486102140e-01,-1.879767070806667717e-02,-5.439519565984281962e-02,-5.856078435482919842e-02,-3.887709713545308560e-02,1.146443536507989885e-02,-2.345510047524452385e-02,-5.633705003206160994e-02,-2.193180141873348962e-02,1.355079912836900692e-02,1.742102763417633163e-02,1.375421599763041770e-02,-1.672944821528583523e-02
-1.633203471436197318e-01,8.501689062758424065e-01,2.192203005546450312e-02,-1.540789351151347977e-02,-8.909868459927310080e-02,2.667764303067271178e-02,1.318388026835260740e-01,-3.093215240751733940e-03,2.129918164828688010e-01,3.016005968705176912e-02,7.097870275684032941e-03,-1.974196210011352204e-01,1.201062125107590361e-01,2.145754341408566412e-01,1.873123376066578305e-01,-1.643277769061022853e-01,-1.920025429607807310e-01,-1.419348985813546904e-01,-3.954410515705005791e-01,-1.301262664630038757e-01,-3.074550866119920012e-01,-3.630073837983847085e-01,-8.859336375750494208e-02,-2.225306319999939830e-01,-7.997284911580142264e-02,1.139371864331626821e-01,6.580933826380998275e-02,1.970120757396543187e-01,5.747611655017309182e-03,1.999156435042297522e-02,1.979939117330874465e-01,1.132597835047975399e-01,2.023811379518127285e-01,3.234282109370065911e-02,-1.331670393355943172e-01,-6.847957754338953283e-03,-2.039669624200163289e-02,2.280879865864368639e-02,-3.910216579394509839e-01,-5.224503181112078593e-02,-3.424070813612707653e-02,-3.209631511563718759e-02,3.862855207095113041e-02,-3.079871265888581289e-02,7.039874223726083624e-02,2.411074491163503197e-01,5.302786371168109053e-02,6.870704706687294494e-02,5.182954731401819351e-03,1.399375321989228260e-01,3.843063580826329151e-01
2.732703424651701796e-01,7.319201517541501500e-01,3.233886896193098603e-02,-4.675332361716760853e-04,4.120861160295020281e-02,1.118040706277925317e-01,7.039275386701046577e-02,-1.928218797523056638e-01,2.081020707834444483e-01,2.132866523608141409e-03,-4.373683320968074772e-02,-4.527561863784145824e-01,2.997310316185681014e-02,8.353905803263202146e-02,-4.816226393626341779e-02,-3.065523633088803601e-01,-2.582947829287537966e-01,-1.625418495783123307e-01,-5.924558921348699325e-01,-1.028488929527480028e-01,-3.843712454100768894e-01,-3.386945777542189062e-01,5.710192111495993039e-02,-3.020488493769166172e-01,-1.370267804262446237e-02,1.477088471785811818e-02,8.778121697407899326e-02,1.732582911847522014e-02,-3.956607980485481180e-02,5.493739626142061377e-02,2.041886511434393842e-02,3.140133424588965189e-02,2.092174993680120942e-01,-1.882688653052143378e-03,-3.331339973301634672e-01,-1.623718806129124254e-02,-1.639375178737783462e-02,-4.016179470128811158e-02,-4.952071127054588073e-01,-6.683615550952907991e-02,-9.752288037028786216e-02,-9.948000735660067484e-02,-1.991557861422418169e-02,-8.805172898818542163e-03,2.412308327815652562e-02,1.178660677776001420e-01,1.508676718532077528e-02,7.518377249736821200e-02,2.784946467263240896e-02,1.292568541558718198e-01,2.781481534374560805e-01
2.124787693504648009e-02,9.690530835694713963e-01,3.176950859046583781e-02,-1.100547302690028581e-02,-4.246849425053744048e-02,7.284805164501675923e-02,1.265740949844572361e-01,-1.040929726793199672e-01,2.548547680380544578e-01,2.103637461531764064e-02,-1.701697029823237561e-02,-3.705916441717675980e-01,9.911011338310263263e-02,1.833508740684612615e-01,1.043259937506822443e-01,-2.738543530892210698e-01,-2.705788297716333890e-01,-1.850337187490035118e-01,-5.834447359768859531e-01,-1.460024759468930844e-01,-4.152728303236450924e-01,-4.270835224754559456e-01,-3.062877166800756501e-02,-3.105833326056912091e-01,-6.205646380551527175e-02,8.472504363423541407e-02,9.247310283100471096e-02,1.481448850855473787e-01,-1.608715114750977268e-02,4.388284181050730592e-02,1.519402130670021445e-01,9.712114784267350531e-02,2.481533495676481738e-01,2.285972367457794405e-02,-2.621282117309814974e-01,-1.349260777858029767e-02,-2.151051340836381692e-02,-3.187607684460965190e-03,-5.278879296086810280e-01,-7.118214800283011179e-02,-7.412125400987246149e-02,-7.229287571026586645e-02,1.725198390477345606e-02,-2.590337286491548041e-02,6.170655499211358946e-02,2.312026410467455384e-01,4.640000488732944073e-02,8.810257127945742006e-02,1.866722662581036737e-02,1.652568862752835932e-01,4.104384425468414754e-01
5.225152746982748564e-01,-4.292210989349615202e-01,1.807221338313710554e-02,3.581225491971328639e-02,2.936023020470427403e-01,1.801003539150490551e-01,-1.554301670075154684e-01,-4.064704293628693677e-01,-5.531029332248112163e-02,-6.193495582326387361e-02,-9.923768513085225174e-02,-5.559777153993968879e-01,-2.354957202920699433e-01,-3.294606995418150053e-01,-5.771421132414987776e-01,-2.888374208720886349e-01,-1.158035443587159263e-01,-6.048760416621308880e-03,-3.723824089575687446e-01,7.626984049054820469e-02,-1.141869987224242294e-01,1.004067510879248365e-01,3.464566891891476264e-01,-1.464412900700985121e-01,1.597343466164186654e-01,-2.373402642765994608e-01,4.089684384013385354e-02,-4.491117544382380311e-01,-9.587615552633518834e-02,7.604220871704094054e-02,-4.355471250674522454e-01,-2.147795751359919958e-01,-1.998953365568510027e-02,-9.053715305069358343e-02,-4.373829121243876239e-01,-1.450647460278703567e-02,1.366708403537824842e-02,-1.504014933320975411e-01,-1.651105554834368938e-01,-2.132116857797394793e-02,-1.412661203100537832e-01,-1.550213131572730219e-01,-1.392295410504559294e-01,5.560484563244971062e-02,-1.138584228681185639e-01,-3.211849856248021884e-01,-9.861178521613225834e-02,-8.171840324938024064e-03,4.892007151306383694e-02,-4.772758740109594999e-02,-2.992784938211760504e-01
-4.889372943008442607e-01,4.144790622360664534e-01,-1.644917926063402258e-02,-3.350491602329491725e-02,-2.744204099845979350e-01,-1.677888089883752265e-01,1.462191583426340757e-01,3.804622365566491804e-01,5.414414302514822946e-02,5.827103584841200612e-02,9.385636826746776573e-02,5.164098498717197838e-01,2.191463125930789013e-01,3.126449121283155219e-01,5.412415636731866542e-01,2.678309773051457121e-01,1.048204856683136454e-01,5.034456124868624642e-03,3.407333817239630025e-01,-7.266652765900730171e-02,1.026017181793897060e-01,-9.578050874706782458e-02,-3.229699577396711874e-01,1.329515677809085250e-01,-1.504334963995696550e-01,2.251990926727563957e-01,-3.543338401002816412e-02,4.230961918630764540e-01,8.962711988756495718e-02,-6.975618878660212741e-02,4.119327577808060137e-01,2.030339535237120629e-01,2.337582814773217152e-02,8.584720424030062302e-02,4.053282378016930254e-01,1.368942679468461432e-02,-1.250271554355520537e-02,1.416600366978042203e-01,1.498370765368385871e-01,1.920801239637750721e-02,1.321582404255788323e-01,1.448333028230326114e-01,1.318218258636432161e-01,-5.188775595514374256e-02,1.075084021962104397e-01,3.038590136474602077e-01,9.343244599368094594e-02,8.764804580046074711e-03,-4.527709106852466359e-02,4.737050290384908768e-02,2.868805496930085797e-01
-3.564188583304302993e-01,2.650092851779856096e-01,-1.307482985319884106e-02,-2.365558442339859777e-02,-1.989325824442750579e-01,-1.262642270214428541e-01,1.011854113209665201e-01,2.847354989437872463e-01,2.683787382360786067e-02,3.983038884860771317e-02,7.016061878005531993e-02,3.821000149478120389e-01,1.515329639984594745e-01,2.202577307837113030e-01,3.869416937261972445e-01,2.021707757069340639e-01,8.338378360600064154e-02,1.175893033650865331e-02,2.623365183103326115e-01,-4.875917300732180576e-02,8.773398322067044175e-02,-5.247320516809398511e-02,-2.287304647032658289e-01,1.057737623210220912e-01,-1.066417034998977109e-01,1.618471045832018118e-01,-2.640225760391343851e-02,3.009725777726885987e-01,6.582489890384955744e-02,-5.023341851514819684e-02,2.951772706680795832e-01,1.437337065328378460e-01,1.000087087017526195e-02,6.174131767517045816e-02,2.987888843274705275e-01,1.088287470119950195e-02,-7.446538551479345638e-03,1.031521165105813431e-01,1.278398989920071505e-01,1.647252168045305540e-02,9.826991371926252494e-02,1.067538859648971133e-01,9.565638099422021923e-02,-3.596372903436365065e-02,7.614212875324405383e-02,2.125409266458029578e-01,6.644455077954289357e-02,2.895872655557803644e-03,-3.298142046992110638e-02,2.966687636944458778e-02,1.949423174986756602e-01
5.730531018899783779e-01,-4.546437032124423516e-01,2.006213897249185113e-02,3.903101086148538790e-02,3.183788140929648680e-01,1.959065378818123926e-01,-1.671022241593528579e-01,-4.400052780605171465e-01,-5.912174246674093553e-02,-6.874357629520219670e-02,-1.065007781533768849e-01,-6.135717499574473432e-01,-2.578466660975073932e-01,-3.549239681681070069e-01,-6.281283566603085289e-01,-3.179979447671076875e-01,-1.311004823363316751e-01,-7.190721408062838473e-03,-4.173027695199597598e-01,8.012763455082258512e-02,-1.297217845218313348e-01,1.054619617088090183e-01,3.800241257482311341e-01,-1.645236699957217386e-01,1.729448827996093729e-01,-2.552511904188058955e-01,4.833582438538515380e-02,-4.866452760739735650e-01,-1.039021738408005685e-01,8.496182449840690432e-02,-4.693797167400779458e-01,-2.325750051533587714e-01,-1.666411401504086509e-02,-9.767910401927358544e-02,-4.823961603461819903e-01,-1.534149440256540702e-02,1.522840396722458314e-02,-1.628220640689500287e-01,-1.854296888377525987e-01,-2.396286727045440768e-02,-1.542454010107931761e-01,-1.699616415767362387e-01,-1.503176621729781504e-01,6.083996642025241153e-02,-1.227518544218392377e-01,-3.457618392126192708e-01,-1.061602980347801511e-01,-7.777685246107723938e-03,5.394319498966002741e-02,-4.866108358004289647e-02,-3.184222294668486164e-01
-4.113320247725487100e-01,2.362942229217004919e-01,-1.623845428597618309e-02,-2.555445036786507459e-02,-2.171940027271990203e-01,-1.434867384008057245e-01,1.039883294822713383e-01,3.184092582404809968e-01,1.586228326846618117e-02,4.355314025673589357e-02,7.701381248265963542e-02,4.433930676235726120e-01,1.625966749569648928e-01,2.295448452313982035e-01,4.217020352202411893e-01,2.374744373912166528e-01,1.074889999525284051e-01,2.187987268267633720e-02,3.243063907332020546e-01,-4.541592772550911983e-02,1.193732227502478926e-01,-3.522292936093928545e-02,-2.517575382892877078e-01,1.342822929887173000e-01,-1.136999808270907353e-01,1.714792516199598604e-01,-3.606535547718015683e-02,3.232898897567538787e-01,7.306435261794182179e-02,-5.871228171177953620e-02,3.146435135107117365e-01,1.529822512126718936e-01,-4.411494171223646552e-03,6.633721277226745094e-02,3.447594934260406196e-01,1.223378061613007717e-02,-7.090013490232997470e-03,1.129965648067270678e-01,1.695453325967009039e-01,2.205008715613680087e-02,1.120218107272156205e-01,1.216282995467398570e-01,1.034387826157217583e-01,-3.857686073891238715e-02,8.030748367360229789e-02,2.207092626511310551e-01,7.010614664839551202e-02,-1.661550647479974070e-03,-3.763319676488051380e-02,2.268214420614986931e-02,1.897476260955306138e-01
-3.840919256835784168e-01,4.361569642975844374e-01,-1.016832099760206151e-02,-2.813206843230307494e-02,-2.272212751493289107e-01,-1.289164307321685743e-01,1.324494329466492371e-01,3.030040199831560699e-01,6.819160047078633158e-02,4.785964748569347671e-02,7.787014804265537937e-02,3.793298386750738049e-01,1.845014536163938623e-01,2.770996497653038237e-01,4.486135451877248381e-01,1.913572184461472259e-01,5.655547537727876467e-02,-1.131382397040879215e-02,2.127297583178855422e-01,-7.462261069479739217e-02,4.242841049631459333e-02,-1.179620293972258177e-01,-2.619329105369769817e-01,7.542593799465700799e-02,-1.290123346330893928e-01,1.955150153032866600e-01,-1.609284886662314118e-02,3.590746895653322279e-01,7.230997086188793721e-02,-5.017744858568697758e-02,3.549665925979010317e-01,1.746131591238892500e-01,4.712236794853564420e-02,7.292628945177130617e-02,3.001649121518687457e-01,1.087680397594087411e-02,-1.171951208492542917e-02,1.166268300170520550e-01,7.090098492260109297e-02,8.702927115970983743e-03,1.006044778167093784e-01,1.103702027752954395e-01,1.109902393090570344e-01,-4.385436288965559315e-02,9.426466659161503170e-02,2.719156521628741108e-01,8.163040589496636801e-02,1.547343520493722584e-02,-3.442215001555538195e-02,5.676835266718020800e-02,2.786463068948075716e-01
2.939179169647888543e-02,-5.727287628338681991e-01,-1.760284968098972669e-02,7.810573183167203969e-03,3.797935931861902425e-02,-3.642941753786518161e-02,-8.103584200856607522e-02,3.941463663133462636e-02,-1.487297753128073441e-01,-1.534802741513146759e-02,6.432544673805025773e-03,1.940706266081475562e-01,-6.440136555172371047e-02,-1.265131867292752232e-01,-8.235909374316721654e-02,1.460835682806992386e-01,1.482696399700242917e-01,1.043017723538947478e-01,3.188275558289784817e-01,8.599757162090551632e-02,2.314021749683357609e-01,2.536927182478744269e-01,3.311115797909507802e-02,1.746283118739973550e-01,4.269310896958757734e-02,-6.010192933273023758e-02,-5.033212138610151931e-02,-9.931011053380410514e-02,5.147330551098203838e-03,-2.034465500890147299e-02,-9.912889645241104719e-02,-6.149119542348315676e-02,-1.434699329246817423e-01,-1.445223473685892934e-02,1.371818171517812657e-01,6.399835699497646857e-03,1.429955238475399959e-02,-1.364164595258252587e-03,2.974621978104691755e-01,3.958942683612227259e-02,3.762481891898834807e-02,3.788916570359426861e-02,-1.396747734111095963e-02,1.732250247165535023e-02,-3.986542254052332507e-02,-1.425520929281789695e-01,-2.817238689360089879e-02,-4.891332413429780313e-02,-7.991383374409485527e-03,-9.551681492017921604e-02,-2.485890755999247692e-01
-3.092342313008972776e-01,-8.990725569310294985e-01,-3.841688570292379340e-02,1.566991375309704539e-03,-4.118019228757652250e-02,-1.273199153976367626e-01,-8.935169728325473293e-02,2.225808300408117779e-01,-2.512146310758844314e-01,-6.651495095673186494e-04,5.036172841957575058e-02,5.342895779765953757e-01,-4.529471226049926191e-02,-1.023652696408496321e-01,4.114258236770663990e-02,3.651095725504178158e-01,3.134569305481660351e-01,1.996485935799443001e-01,7.135727801222491173e-01,1.299536351233218368e-01,4.674068160550381990e-01,4.111207922278407589e-01,-6.198555473995967513e-02,3.610621926763132872e-01,2.036603017880887073e-02,-2.208606188325671488e-02,-1.058323879683921304e-01,-3.641842770337756774e-02,4.544343229937140849e-02,-6.670796604524517615e-02,-4.205900435230065793e-02,-4.605474572091750735e-02,-2.537306496479581619e-01,-2.249367209772903855e-03,3.898032084031900490e-01,2.014069176902445052e-02,1.917312826106675958e-02,4.171595082342997862e-02,5.958511852778226592e-01,8.106272674060907568e-02,1.145411949790954426e-01,1.146906390003046838e-01,1.921891505626027036e-02,1.203644486167837480e-02,-3.282832905272035223e-02,-1.556049054517509855e-01,-2.351315919881590694e-02,-9.313716609157517146e-02,-3.305794942209734633e-02,-1.595232873027647158e-01,-3.443346992852928112e-01
4.386954166085334506e-01,-9.359802622008408512e-01,-9.788970150834583675e-03,3.027757348568290569e-02,2.097483831110032171e-01,5.511173403202376114e-02,-1.915820689612378336e-01,-1.923351174820997211e-01,-2.129079064995899051e-01,-5.495978175076247224e-02,-6.105511910693384864e-02,-8.933790478355600750e-02,-2.135409461786755836e-01,-3.432593844676560813e-01,-4.315120850122951546e-01,1.673127945302373652e-03,1.116952123990711671e-01,1.136594190385076253e-01,1.741526295680052849e-01,1.511370293565486578e-01,2.125002712974584651e-01,3.613322677190679011e-01,2.361769684511219880e-01,1.266134931742176895e-01,1.447463322648199491e-01,-2.102035471274652512e-01,-3.513495314644744100e-02,-3.788563062366955836e-01,-5.268419293448049767e-02,1.642429966742034106e-02,-3.824751978036114441e-01,-1.930934234985954012e-01,-1.874751902177148599e-01,-6.951952458701358972e-02,-8.364905552144452638e-02,-2.036829542155773384e-03,2.327531715656015743e-02,-9.329952521818196676e-02,2.599201188833473175e-01,3.498591522266607939e-02,-3.366494125089967288e-02,-4.297324006030298071e-02,-1.006728370826659447e-01,5.165102359706281315e-02,-1.163108587473356964e-01,-3.636987700299726400e-01,-9.276154914956699638e-02,-5.926964437411778863e-02,1.872976891911759534e-02,-1.449449755400870343e-01,-4.761013796642127316e-01
5.471246358445545077e-01,-5.480633062806399280e-01,1.644803112452454877e-02,3.929535530248991215e-02,3.144351270586638880e-01,1.833439629882746003e-01,-1.780310699950318765e-01,-4.211166519122408469e-01,-8.446604955594655406e-02,-6.801989642393241331e-02,-1.060841053465516187e-01,-5.646915446823393969e-01,-2.613364041593262410e-01,-3.713771473403019163e-01,-6.250275176244778352e-01,-2.875486121624228897e-01,-1.003849814588553685e-01,8.854846061656432982e-03,-3.460924706316307886e-01,9.381192760868094227e-02,-8.715661210913271117e-02,1.435977313682976764e-01,3.739411593612840257e-01,-1.295980147144019934e-01,1.767852862909010947e-01,-2.626487435724896846e-01,3.473781551970150927e-02,-4.938692182605605163e-01,-1.016308290274216680e-01,7.710403332645505980e-02,-4.821601659114927441e-01,-2.381471227763863607e-01,-4.457953426859848772e-02,-9.944137577268247208e-02,-4.467769136142719644e-01,-1.469271153005616282e-02,1.678737497345387727e-02,-1.624031456973357990e-01,-1.309567731380165412e-01,-1.653933725853215519e-02,-1.451131808091703224e-01,-1.605456830735781659e-01,-1.518126327285742316e-01,6.154051979324661609e-02,-1.271029433890845384e-01,-3.649133316262154203e-01,-1.104449665982838169e-01,-1.670622219306189260e-02,5.048325731391363480e-02,-6.618393892123565492e-02,-3.584831354150136429e-01
5.743207009471612556e-01,-8.142411780559138945e-01,9.162979048983862021e-03,4.321505626862354177e-02,3.254467220611840794e-01,1.624777618515501065e-01,-2.182104422835572377e-01,-4.035561081297507346e-01,-1.577126357599552831e-01,-7.505800868512260693e-02,-1.135973508303530638e-01,-4.950008287581318389e-01,-2.919718664405983044e-01,-4.339762315005102344e-01,-6.672178698495938587e-01,-2.362029868708710734e-01,-3.452969632448080889e-02,4.988254474358871232e-02,-2.027109771097011515e-01,1.337834567163326827e-01,1.109375467225742935e-02,2.489042588791373356e-01,3.902035493157072210e-01,-5.362764295890828231e-02,1.983749135959708421e-01,-2.953324972709317486e-01,1.018845627746436250e-02,-5.474357764769118839e-01,-1.037824400519178486e-01,6.525125927897572342e-02,-5.475092410626889450e-01,-2.678326001506040610e-01,-1.137144765362130966e-01,-1.102482396368243134e-01,-3.944933149501368419e-01,-1.344493532329785711e-02,2.166543876935029048e-02,-1.732777912208904869e-01,-7.027588419699586260e-03,5.364961206252961230e-04,-1.313579977512746855e-01,-1.494748021334386390e-01,-1.658877945113192975e-01,6.836498890153124008e-02,-1.477883790407661380e-01,-4.399888531537496927e-01,-1.285216282365501950e-01,-3.840918407972111065e-02,4.648628908473639854e-02,-1.123953442053553103e-01,-4.795939217205808514e-01
-3.281388320262565439e-01,1.294874637934691375e+00,2.911280194447907199e-02,-2.704327617549544260e-02,-1.618662328632478886e-01,1.905476986902594413e-02,2.135247500276996335e-01,3.815034427779653153e-02,3.193064881249969011e-01,5.270308395519467809e-02,2.906576305994293050e-02,-2.313827056047385033e-01,2.112847014950764712e-01,3.368097169617485509e-01,3.362992517960800010e-01,-2.077590149854099399e-01,-2.734238807379629210e-01,-2.062204717883595884e-01,-5.451276993122911030e-01,-2.062947633182648788e-01,-4.461893784444250222e-01,-5.501858376509539683e-01,-1.667735529983312426e-01,-3.090887130851333042e-01,-1.352798145258266860e-01,1.875208480799469279e-01,9.080266906134391858e-02,3.407426899721346936e-01,2.150732872284175784e-02,2.419900497128295649e-02,3.472193963823504981e-01,1.877612600854186853e-01,2.979685032228573394e-01,5.720128913110380381e-02,-1.435565594984692106e-01,-8.706725696668644876e-03,-2.930167881502656127e-02,5.351357598400800775e-02,-5.603431112118778534e-01,-7.505743100292210090e-02,-3.884455777695096368e-02,-3.075497143441447562e-02,7.278085956249388810e-02,-5.148910999939917271e-02,1.175124042422626414e-01,3.964068221282452953e-01,9.190206844859215296e-02,1.011041570861102995e-01,2.613657636701605200e-03,2.135274647808186876e-01,5.958025702567184556e-01
-4.536236305152877013e-01,1.335096750217494410e+00,2.470018602887080056e-02,-3.286500608541387258e-02,-2.044626250139094104e-01,-6.603188648330126850e-03,2.390128715884122790e-01,1.109965934770364288e-01,3.240252102370679288e-01,6.484416292291676764e-02,5.071169200159776624e-02,-1.273489491586110300e-01,2.493137524613566192e-01,3.901366362623787665e-01,4.291223265179545110e-01,-1.475894384769978196e-01,-2.430375439972569107e-01,-1.946326080379477130e-01,-4.650045560100087849e-01,-2.146691295665617005e-01,-4.135570627800387311e-01,-5.561728811774681036e-01,-2.239278181220514252e-01,-2.762861779429797160e-01,-1.604862501507398065e-01,2.234495777036248632e-01,7.708539324847137053e-02,4.080596333204090098e-01,3.921122101424754508e-02,9.757598998011254507e-03,4.151804820001731566e-01,2.149989361070531735e-01,2.945086808669387102e-01,6.947746252178975401e-02,-6.665922015880218487e-02,-5.393653531902739724e-03,-3.101299103936731166e-02,7.867887620366866008e-02,-5.178450291201511790e-01,-6.913926035472965637e-02,-1.576774988329634683e-02,-5.212411418834432542e-03,9.525527165054610557e-02,-5.971482826140228628e-02,1.354024227521677670e-01,4.433933635884465541e-01,1.058083228440978019e-01,9.636276538200942710e-02,-6.885098822491358961e-03,2.160881778338342996e-01,6.331586445595498436e-01
1.523288928946273935e-01,-1.123650984100982075e+00,-3.041778462662222265e-02,1.873342942340869982e-02,1.030781302113407544e-01,-4.431213836111002474e-02,-1.684062732737614254e-01,3.469634488533986094e-02,-2.841157817924339080e-01,-3.479696834851165460e-02,-4.242924247179263517e-03,3.055847309110167886e-01,-1.522596370871261984e-01,-2.552381474252090054e-01,-2.148915076518037592e-01,2.431944038918711359e-01,2.727289761434399940e-01,1.964556068492240570e-01,5.658337946474673030e-01,1.760237841483941190e-01,4.302468540073663972e-01,4.878142162333284348e-01,9.592648305997786284e-02,3.099645798155071796e-01,9.716234691775364751e-02,-1.339950324760046108e-01,-9.235895400035916414e-02,-2.401462847490802854e-01,-2.159808868536564324e-03,-3.440099516575512162e-02,-2.449497631314629942e-01,-1.408916050086404248e-01,-2.711264738460963386e-01,-3.914756170278221176e-02,2.050686243559754207e-01,1.102360162211437483e-02,2.543843340484817570e-02,-2.365930491195313012e-02,5.431255473994155425e-01,7.294184873109416101e-02,5.706716006616800729e-02,5.247011400682777965e-02,-4.345679924573355585e-02,3.830695687582518633e-02,-8.841348589379868783e-02,-3.102746825931694263e-01,-6.808652601814083050e-02,-9.449881396291334723e-02,-1.100517165916949612e-02,-1.882686662184336057e-01,-4.990316800505251171e-01
2.741126144734349346e-01,-4.485442439962644134e-01,2.261606591051625384e-03,2.107893226339950868e-02,1.650297569447334300e-01,7.756885263594270885e-02,-1.125818210691233306e-01,-1.981304796303716143e-01,-8.507725448311674599e-02,-3.521867173244241922e-02,-5.269757792517604927e-02,-2.001867043689359860e-01,-1.404670716268866804e-01,-2.220408258495234766e-01,-3.242080051758045589e-01,-8.931638789326283578e-02,3.009968475382502479e-03,3.460975255864055800e-02,-5.350398244086036759e-02,7.518307504979625244e-02,3.468622357503377968e-02,1.491218137222634632e-01,1.838347802161011957e-01,-2.416958989504187222e-03,9.870306126899716648e-02,-1.490523147382706581e-01,-3.256565881107741783e-03,-2.682520244319415159e-01,-4.818279265496694386e-02,2.743587597728889757e-02,-2.679013363203738285e-01,-1.334253417286956900e-01,-7.153542472159743482e-02,-5.280355104150202816e-02,-1.626094628581072621e-01,-6.135167280110261773e-03,1.152664819605349680e-02,-7.941812770328274262e-02,3.249196413135963662e-02,4.758822610185801417e-03,-5.697127420688573307e-02,-6.324128254176172859e-02,-7.899510632803015409e-02,3.392325794969159453e-02,-7.501932998220205151e-02,-2.231269475894233911e-01,-6.277946368523855403e-02,-2.265444854651339074e-02,2.100650752273616750e-02,-6.480677418112613941e-02,-2.566595342430686433e-01
5.859235183797995017e-02,-3.458778019319669883e-01,-8.608763891346538424e-03,6.644757025868189802e-03,4.084091317557748263e-02,-8.322886360971174652e-03,-5.527429694325155379e-02,-5.527695643915693340e-03,-8.530844765032973009e-02,-1.178128496627925056e-02,-2.582458373774249114e-03,7.468386148843983441e-02,-4.936486753188857463e-02,-9.287297873570934947e-02,-8.199661782385950226e-02,6.376851924777605929e-02,7.532435980560547861e-02,5.743915243971619428e-02,1.551186689962282816e-01,5.319168127840601112e-02,1.217628522040778427e-01,1.485962643323087973e-01,4.022769288254193082e-02,8.919835060379414926e-02,3.419798078061097452e-02,-4.899228317030597524e-02,-2.533539653303274256e-02,-8.281981864758869438e-02,-3.294404289926527139e-03,-6.431534524075648365e-03,-8.205937088419035241e-02,-4.721242158237767134e-02,-8.157308598542965805e-02,-1.332215752225652562e-02,5.057925773722784374e-02,2.518431735796915812e-03,9.145324909714808506e-03,-9.818305550769927323e-03,1.555507065923851517e-01,2.068164135069247220e-02,1.240318801741704946e-02,1.200846238744227717e-02,-1.639434708167489957e-02,1.313615358376129735e-02,-2.950983860304912804e-02,-9.936727248719612327e-02,-2.154716531141900177e-02,-2.718596848829906223e-02,-1.210903121861424316e-03,-5.620729237352140029e-02,-1.579681433978343263e-01
-3.239779215602001106e-01,1.143501803005335216e+00,2.465997936850381975e-02,-2.502941772602440551e-02,-1.538855255607603223e-01,9.506123251798082388e-03,1.929032992823111470e-01,5.430797439690963208e-02,2.800456651681517140e-01,4.872978188358320639e-02,2.894352154367477517e-02,-1.745519048679169960e-01,1.917240653848792109e-01,3.142265327130174812e-01,3.194863628292762270e-01,-1.662812766828919986e-01,-2.295208120330946844e-01,-1.773282243278181958e-01,-4.537469749767631400e-01,-1.804990444525266802e-01,-3.789412894250822617e-01,-4.811783035830036748e-01,-1.613915893913635546e-01,-2.620742369483727852e-01,-1.251249983162956159e-01,1.760469962927094789e-01,7.644791513626009172e-02,3.150949901973986722e-01,2.278753505283041478e-02,1.620461005753943279e-02,3.189663445972816813e-01,1.720215489449246349e-01,2.602513858599002639e-01,5.316902028017587295e-02,-1.069578538936814122e-01,-6.479094048414566973e-03,-2.681113569544243957e-02,5.213865692540494562e-02,-4.772944369439783840e-01,-6.376309416220203585e-02,-2.644600680319237826e-02,-2.012791441883001950e-02,6.937478181447705172e-02,-4.714570581119190140e-02,1.070712841425766892e-01,3.568011648105197664e-01,8.281197962315914318e-02,8.704645721479419007e-02,-4.092416121487063119e-04,1.865594938069971009e-01,5.320023380776207622e-01
-1.911637453486450255e-01,-7.667055359956408411e-01,-3.062014746721387903e-02,3.607909403987234146e-03,-1.310225771559610231e-02,-9.502015898610281786e-02,-8.459637271760472865e-02,1.570194970989683414e-01,-2.122856537906128993e-01,-7.068513948528109582e-03,3.441763061301452570e-02,4.099672082780635995e-01,-4.886472261802617123e-02,-1.087214201880170039e-01,1.830944259630767337e-03,2.837176393769563765e-01,2.501791759097604095e-01,1.623353492839192669e-01,5.634659713255967262e-01,1.115490580544812593e-01,3.761594758159780838e-01,3.519437246972347832e-01,-2.831670024106975811e-02,2.915381124125345225e-01,2.719307611688787096e-02,-3.399248313936033272e-02,-8.450393295525031323e-02,-5.342559158838808275e-02,3.066296669571977676e-02,-4.873315838616495976e-02,-5.620478040793448760e-02,-4.820076349187817771e-02,-2.103436466116199444e-01,-4.558454024277167928e-03,2.983629493826002732e-01,1.456452532743067116e-02,1.754138060739535154e-02,2.833790970488480818e-02,4.829992903983814090e-01,6.501316303389050033e-02,8.693642350543411002e-02,8.788248070251292177e-02,8.990914479576412460e-03,1.360093652601124248e-02,-3.405140237839138218e-02,-1.451930406418447672e-01,-2.286077612089857866e-02,-7.499879013945962014e-02,-2.369474891796147231e-02,-1.335005063780907719e-01,-3.037104527218593697e-01
