-7.128121655966953574e-01,2.339200570273182844e+00,-3.522894843947912413e-01,-3.924739746051379430e-01,8.050794218119613488e-01,-1.985730899703530283e-01,-2.584036332700443972e-01,1.853411345426017598e-01,-2.093756042198588463e-01,8.019748094622520043e-03,-1.555497904255865593e-01,5.751349036972320805e-01,3.110743985829088065e-01,-7.652264381733114851e-01,1.098598086860445022e+00,7.274905061657803707e-01,2.765653799502744148e-01,3.239951868164158699e-01,1.128806399192391119e+00,-4.133466517172471218e-03,-1.023090186881589203e-01,1.243844620655457645e+00,-7.129465219245310070e-01,2.605218436188708742e-01,-1.943404233681945703e-01,2.911370368760523575e-01,4.438067711072773425e-01,6.568193870638480147e-01,-1.647805018212848346e-02,-1.774272774615153481e-01,4.362194430819141266e-01,1.579364206443256147e-01,3.038681027085083919e-01,4.160815004545411200e-01,-5.748478658498541449e-01,-1.293695040859426659e-01,-2.760690862192169415e-01,5.924124447918054370e-01,8.849093106984887158e-02,-3.950913475961950194e-01,-4.644066828796694635e-01,2.369959966024476616e-01,4.585926094581824208e-01,-4.388572671774157441e-01,-3.640439686415820192e-02,9.304574412582303222e-02,1.763597817073087604e-01,2.093359298418108194e-01,-1.908197777939869277e-01,1.390196784004496533e-01,2.687713357134814962e-01
1.265044089719704390e+00,-3.669819104535076981e+00,2.362108773410877827e-01,4.987018174660386161e-02,9.825357825571866544e-01,-8.409055766456005054e-01,-6.943694503965995579e-02,-7.368281522864373878e-01,-6.796300816449220017e-01,1.174771465581278873e+00,1.768915908028612316e+00,1.738941939949588900e+00,-7.282261192909207370e-01,-1.898141515586190542e-01,-8.783610644573733861e-01,4.860553148219114994e-01,2.256492416336924656e+00,-4.617741856772249465e-01,3.211823958585066752e+00,1.679149350315735312e+00,2.704995356623483893e+00,2.215547843269408013e+00,-1.409725792513838449e-01,-6.353499048581831565e-02,-7.323229533003349223e-01,-1.684960291536701793e-01,-1.108493576083868559e+00,-1.078383453380989065e+00,-1.217776413358635290e+00,-1.204875805727511073e+00,-4.191734008377671072e-01,-1.811092275827161702e+00,-1.210242775004011451e+00,-5.636690457259053710e-01,-7.239064000325391435e-01,-1.119976815269693837e+00,2.511286841364801514e-01,-6.408573923494383928e-01,8.067649440303877872e-01,5.563794701724160685e-01,1.264694669857681364e-01,-2.284694942919013316e-01,3.162454550906296236e-01,4.672661522296499559e-01,-3.247872668170316279e-01,-1.307529070866569887e+00,-1.460131399460755208e+00,-2.121795043428595040e+00,-6.415137570917347487e-01,-1.568455184540038960e+00,-2.850427025584328700e+00
1.373857707271540995e+00,-3.655897685987487211e+00,1.054532445577535116e+00,8.092701391840222414e-01,1.357984747580387674e+00,4.146960937719552098e-01,-1.244027383364433303e+00,-1.276378406530019882e+00,-5.274196170254119576e-01,1.685766542680575963e-01,-1.926790406100385766e+00,-2.105510634727963737e+00,-1.260311005530107442e+00,-1.102688418479876198e+00,-1.698419217867349618e+00,-3.421758993693881923e-01,-1.022479099972928740e+00,-1.145708911280754583e+00,-1.872527355970957375e-01,4.815520088166665436e-01,1.123178730133367997e+00,3.396077664753543446e-01,2.031955580360799818e+00,-9.159998208532167396e-01,5.802924263250427428e-01,5.633061078459377091e-01,4.559274973548437249e-01,-1.437528088676624627e+00,-5.772010691744887678e-01,7.796501239422504170e-01,-2.351122752462606602e+00,-8.747053242555143937e-01,-3.963490322673177135e-01,-6.968921240882895995e-01,-2.880032438438976605e+00,-3.987253939702679051e-01,1.015332421260261242e+00,-1.737652132874524469e+00,7.399444417164015020e-01,7.813847140738467978e-01,3.642825400758985532e-01,-9.537390589043143185e-01,-5.903896679133667780e-01,7.337075279601803501e-01,1.564130846491789545e-02,-1.809378524326919147e+00,-5.061611832146447609e-01,2.272558191426616581e-01,4.768468377628812260e-01,-4.576731115579626974e-01,-1.594426574290178866e+00
-1.071715752978523062e+00,3.831515367304857644e+00,-5.980729428620458199e-01,-4.525205636736436832e-01,-4.262453245195340634e-01,-4.275519824545359060e-01,3.617892805007582591e-01,3.273239445807754056e-01,4.437997627348417851e-01,2.285581416205365590e-01,2.028369494920867488e-01,6.757379367232613232e-02,-4.055078519093299055e-02,2.428102876638350491e-02,6.685721091544324368e-01,3.158526722520892949e-01,-5.555793805835406163e-01,-1.938286371020143256e-02,-5.219401786792737807e-01,-1.032992566622966901e+00,-1.218908548633307332e+00,-1.278699815197621881e+00,-1.199587735129115096e+00,-1.210318717275500333e+00,-1.369609069363496023e-01,-2.781395541939057359e-01,5.274995314511329303e-01,6.976349735238780436e-01,4.445108359344498994e-01,-2.559772945817488377e-01,1.043528181140348510e+00,8.956056512274099823e-01,9.986910986379212707e-01,7.708398335042231098e-02,1.528345631012497929e-01,1.858358949284502071e-01,-6.297928725034963593e-01,8.246553936264197082e-01,-1.388134872118154339e+00,-8.320424688132247448e-01,-8.132389243973603410e-01,1.211084122031344384e-01,2.921570380045996895e-01,-5.443502387230005901e-01,1.459530232264307989e-02,9.620986504305817366e-01,4.515257555176003246e-01,5.815658894363392450e-01,7.808628475779914868e-02,7.509736340384796094e-01,1.556136675182117290e+00
1.417076099665199873e+00,-4.192611364639608595e+00,7.812163842196514496e-01,6.680566077800244029e-01,7.092963444881191792e-01,4.274942288841784843e-01,-9.019097541962671771e-01,-6.389507756494607893e-01,-8.591871596644229392e-01,-4.559534713224547842e-01,-7.755684337072313861e-01,2.822999820329167436e-02,-6.130313813826062663e-01,-1.056155446804809772e+00,-7.634536128795436083e-01,-8.616194975880689944e-01,5.050557708101375276e-01,7.141979008867811451e-01,1.787557858048126391e+00,1.272380122614955145e+00,1.718230778606818498e+00,2.726681895711375425e+00,1.466165522208856986e+00,1.282006905994342860e+00,3.779025735288861765e-01,5.713049809212797925e-01,1.420607595701565695e-01,-9.089756955505261526e-01,-9.134607180708835816e-01,3.307256291373212864e-01,-1.103720253293557718e+00,-5.149444401711019692e-01,-1.051624005931983241e+00,-4.047131738113590727e-02,-1.579529002151146000e-01,-4.913419653293565337e-01,7.434364378598865564e-01,-1.214805057780550479e+00,1.713240010749219167e+00,8.605293015579927873e-01,8.191078085498166850e-01,-6.837751954121409903e-02,-4.236653651832323342e-01,6.720968303193222138e-01,4.489904907801837292e-02,-1.315663159511421654e+00,-4.644780200289855832e-01,-4.103749490853431658e-01,4.672362492019957458e-02,-9.963319529420585630e-01,-2.117534812782358777e+00
8.894479770927291584e-01,-3.582693757574262339e+00,3.098582013361281251e-01,1.271458825683154659e-01,1.279561816315067491e+00,6.824812259048218532e-01,1.827163192815088433e+00,-5.018910652293955277e-01,-1.484130565108614963e+00,-2.239077806884286759e-01,-9.357914187528945105e-01,-1.707718335352030048e-01,-9.586279556445321814e-01,-7.648978930722226677e-01,-8.420927267790863091e-01,2.395366077691159834e+00,2.144952372604222113e+00,2.777185666529813357e+00,3.173804049660460258e+00,1.618607868268022276e+00,2.125638242954942303e+00,1.929196019785514027e+00,-3.103301126529571796e-01,4.485236271498205807e-01,-5.274308307766325532e-01,2.005202167494684051e+00,-1.160585893521586698e+00,-7.581876687490067823e-01,-3.420608046396226842e-01,-9.524470571819262377e-01,-1.208844641723034075e+00,-1.750413788630593492e+00,-1.281712639887836236e+00,-4.946940967134685341e-01,-9.784979993789721942e-01,-2.564354662482716263e-01,2.911654121659953964e-01,-7.651575102680179263e-01,6.231924595225620811e-01,5.184731059889273741e-01,8.688204022871401366e-02,-3.071542608377609285e-01,2.570075628944416546e-01,6.026687830699509751e-01,-5.527236651377223087e-01,-7.826678660289282385e-01,-1.307780577421197910e+00,-2.007080447615729568e+00,-5.535814907671732232e-01,-1.360584984954997134e+00,-2.806766487968622936e+00
-3.571063467069798270e-01,1.522860241729483421e+00,-3.633082949930485639e-01,-2.144238980960998797e-01,3.839814283882437840e-01,-1.919968723721700854e-01,-1.714773771135422731e-01,2.551859310781512402e-01,7.285833931083694759e-02,2.123189459732422180e-01,2.291495023193201863e-01,6.087310486513815011e-01,1.998696980881715379e-01,-2.194066418150258657e-01,6.794898501198154417e-01,4.039421843178918614e-01,5.093994504449664840e-01,2.138757103794069747e-01,8.175797244540279340e-01,-8.912090971408175022e-02,-1.609843142311399508e-02,6.042196337030150133e-01,-5.931684325917704337e-01,-4.821695368657898800e-02,-1.912669253375117173e-01,2.042300446474601752e-02,2.817698786188268523e-01,3.992475071933184738e-01,-2.055949602651259700e-01,-3.477605604794526961e-01,5.473418108779819491e-01,1.561348312164066165e-01,2.875185594580546011e-01,1.619028684322308675e-01,-4.922015668009709355e-01,-1.527285788350851992e-01,-2.726954955958339477e-01,3.111560426865473405e-01,1.104422250340372502e-01,-3.280899554849047162e-01,-2.910040976130739976e-01,1.294018586924192971e-01,2.989972503980202756e-01,-1.191412641007455059e-01,-9.979425560778035220e-02,1.826546413451200224e-01,-5.528177482095378813e-03,1.350777693652528873e-02,-1.977757020353544393e-01,3.058904765735638229e-02,5.295753157482167156e-02
2.429872233025961226e+00,2.812796425230962960e+00,3.987405819703471188e-01,3.125006805105409735e-01,1.739284403571444759e+00,1.213180778483915923e+00,2.822480893350840070e+00,-1.626310217554819637e+00,-9.889349523146577781e-01,5.350663608628008355e-02,-6.548231646421248664e-01,-7.620779351262141343e-01,1.129974114019064224e+00,-1.510896687597761412e+00,-1.199306532749497389e+00,-9.297239115432001100e-01,-3.052389470486024603e+00,-2.803158891571292610e+00,-1.284868429216872610e+00,-1.247816029222410750e+00,-7.874010462678305844e-01,1.702382634953868434e+00,1.455627780903851143e+00,-4.547752399699514503e-01,9.910011735331600846e-01,-1.808413088334322572e+00,8.338916442529934470e-01,-2.882417167908131184e-01,4.728868433378655145e-01,1.410201593925709096e+00,-6.682068389927234842e-01,1.305319268020687984e+00,1.295399820864045370e+00,3.802077484406755220e-02,-1.212591726454039120e+00,-1.032905688508239495e+00,7.720233754087899580e-01,-5.024463254186207761e-01,-1.278816060361115614e+00,-1.503191150564274214e-01,-9.304989479926932816e-01,-2.479546040107028226e-01,-7.905777454322481246e-01,-2.457416204961292427e-01,-5.182386532255105205e-02,-1.155813423230983128e+00,1.256934131146083988e+00,2.385453022595755534e+00,8.531692459717109545e-01,1.172982795604678996e+00,1.515782562663504418e+00
-2.548423916500012765e-01,8.805597699905566567e-02,-3.078517589297909973e-01,-3.649462528547303131e-01,-2.172434664446523667e-01,4.816782036889934171e-02,4.726584301950318978e-01,2.397794079942137946e-01,1.904481246962326513e-01,7.133516537271546998e-01,2.779906452609315903e-01,1.185982014183123656e+00,3.727709217780250661e-01,2.935084952787319068e-01,7.814050881411875871e-01,6.808331785891977850e-01,1.828800155037011432e+00,-1.997146413083685235e-01,1.164953028077998498e+00,1.143793724906104203e-01,2.394473795795766247e-01,1.032696888293358622e-01,-1.007901180173780276e+00,-8.798988973843493988e-02,-5.053970586407959820e-01,3.552778139490396780e-01,6.625451881344059102e-02,4.599751325757371334e-01,-4.788157308278198077e-01,-1.235925309326817656e+00,6.691916747183829228e-02,-5.390484561578750000e-01,-4.652911401352914922e-01,-2.224297651755147986e-01,-7.374970175996693467e-01,-1.603615343548774330e-01,-4.432148314347164608e-01,1.565109827935623199e-01,1.220900732564912661e-01,-2.310166506282839427e-01,1.279684729765253881e-01,1.223932869751432617e-01,1.639429553626388925e-01,-1.928249475234400656e-01,-2.091047191256027449e-01,3.266860786878191258e-01,-7.279554154135362554e-01,-1.117348419796013070e+00,-6.173197167314513623e-01,-5.380867080576996475e-01,-8.558023460328516574e-01
7.658786446673411241e-01,7.927166373368604857e-01,6.798153108627984498e-01,5.401842807060265317e-01,2.155475762934364159e+00,5.619258126018148586e-02,-2.450164109567092852e-01,2.372968356100465734e-02,-3.142598961902809962e-01,2.252369216559190424e+00,2.046122591012973668e+00,-3.323983072728082799e+00,-2.863349451070087870e+00,-1.127354555178465167e+00,-8.349815309806696284e-01,6.408366679288036716e-01,-2.671789401396139851e+00,3.462413207758213485e+00,-2.349671737318302256e+00,-4.885672167974648428e-01,1.421883996627816282e+00,-6.298575608275235327e-01,1.131699749697160140e+00,-1.209537565149073179e+00,9.905673733966736672e-01,-5.686406644628740903e-01,1.298057786693682880e+00,-9.383111414824143459e-01,9.545860521873792415e-01,1.961474617502520390e+00,1.776288025648095070e-01,7.237449613309905327e-01,9.476071305111182230e-01,-4.348223135409398643e-01,-4.582749073267513573e+00,1.874231379727968883e-01,5.599981065184366225e-01,-3.334960007845506058e-01,-1.772628081993218030e-01,3.720937985997603836e-01,6.204601140652610258e-01,-3.837275252278192217e-01,-9.078853010703843429e-01,9.026477333915229606e-02,-1.560158369027598302e-01,-1.155715126408206839e+00,6.120127136820917579e-01,2.260971154549912043e+00,9.256372278035658319e-01,1.087085936171467759e+00,1.538645426296310736e+00
-1.622340677268693021e+00,-1.858082524290537219e+00,-3.028197312564047672e-01,-1.939918302341842316e-01,-1.291960151676527113e+00,1.062218064733226053e-01,-2.183516901652098330e+00,1.046813691702813243e+00,5.253945681846383664e-01,-7.952436575631011834e-03,2.141250575845645709e-01,1.680349848192660867e+00,-8.611484238103881417e-01,1.189216999466381708e+00,1.367450436454157314e+00,4.506049243779471358e-01,2.909257560583066393e+00,1.987272356784293148e+00,1.670432171533428045e+00,8.590436459107126943e-01,5.640097952471033738e-01,-2.583354553561736933e-01,-1.105665168284202249e+00,3.382104616905988181e-01,-8.264821206755375016e-01,8.578762712395517909e-01,-4.760764131509012120e-01,3.977598609397238194e-01,-4.076135861888719458e-01,-1.676657097565121601e+00,3.417565552417888286e-01,-9.169169582861798062e-01,-1.279422841643707676e+00,-9.663898334805051671e-02,5.703146596633369425e-01,4.321960945846803903e-01,-8.809104718155306157e-01,3.669729474562163918e-01,6.858771193575174951e-01,3.089633616309738276e-02,6.036523078536073506e-01,4.002534382011632141e-01,3.937639512269351938e-01,4.135200059616320201e-02,3.227077483508526690e-02,8.365165119274735606e-01,-1.234968275954972050e+00,-2.119528980685938535e+00,-9.019911399335367452e-01,-1.064366751889377571e+00,-1.585311626920209882e+00
-2.966497185581135065e-01,-9.781028833030782632e-01,7.150639145672159358e-02,-1.217137861810183158e-01,8.645312415942100204e-01,-1.430388329196785047e-01,6.362865032548715993e-02,3.565069348774879687e-01,-7.752705081677434273e-02,-1.959243128596340755e-01,2.587219054100879934e-01,8.542415732233321624e-01,2.118972313452569811e-01,-1.120935293294119672e-01,6.706870298517028095e-01,2.115523706790381209e-01,1.480674468805543764e+00,1.015762485799757003e-01,1.338272914246408485e+00,7.429901981255817578e-01,1.095114674097950047e+00,1.340889712523885002e+00,-1.793781635060779089e-01,4.344172002490642170e-01,-3.739325317737564602e-01,8.225825542806868007e-02,2.461634956213829828e-01,-1.012190531555202805e-01,-5.216675823301809567e-01,-6.505596428782671747e-01,-2.259792861152669086e-01,-7.217647097060597705e-01,-6.689124920633728877e-01,8.136736231526121854e-02,-7.005425597297763041e-01,-1.726557154633426294e-01,-3.173846694043818695e-01,-7.290820333937780839e-02,8.672123165353369245e-01,6.091086990413981800e-02,3.644604806885533010e-01,7.203301925684713058e-02,2.184148055411551104e-01,2.465843429651626284e-01,-1.119176132193609730e-01,-4.935151211064363608e-01,-6.621913002705830387e-01,-1.088029950114276501e+00,-2.292673345336745105e-01,-6.988028797736196562e-01,-1.231845101176825441e+00
1.851194964108439922e-01,-1.360446213242857971e-01,3.090420611697574094e-01,2.872606700722410422e-01,1.320944683218781224e+00,-3.009582340461201544e-01,-3.188932080129920910e-01,-5.850912188233511335e-01,-8.065456074019766719e-01,-1.165371274690382014e-01,-7.646851273821225758e-01,-1.447841074218673363e+00,-8.131989964897795575e-01,-1.923209207318555602e+00,-1.030705165375523702e+00,3.249868002494734620e-01,-1.728570122163692435e+00,5.467082095088466875e-01,1.272900627917912253e-01,-1.075691627461698580e-01,4.107244749424391328e-01,8.672818711432925820e-01,1.145298652051869537e+00,2.212705701718810924e-01,6.891065106166363030e-01,1.810703531989353854e-01,-7.056794791284187740e-01,-7.629835212352568119e-01,4.900285931003732220e-01,1.375522046922298181e+00,-4.352667073895207794e-01,4.100113251085357735e-02,7.192477957886342921e-01,2.395669052749726524e-01,-5.726462501959461715e-01,-1.483116555777799772e-01,6.482534995137061440e-01,-3.217495924430026633e-01,-3.961160758280017347e-01,1.144687180957013745e-01,-2.081150320020318523e-01,-2.644004780773813179e-01,-1.511232457351052161e-01,2.164298094398763583e-01,-7.957219596044565191e-02,-7.667214466585633437e-01,5.837145209898186859e-01,1.179617601247800796e+00,6.389525250390403199e-01,5.727628714180709180e-01,5.140290382380505729e-01
-8.697118339775494755e-01,3.500950263483078473e+00,-3.182918009350217403e-01,-3.391087575174161484e-01,-5.451101541327446620e-01,-7.400181492395295768e-01,-3.228837907831664800e-01,5.316910282264716292e-01,3.764267000001035868e-01,4.451063986235329062e-01,2.296794765225635138e-01,-3.071172149263138862e-01,1.953259224378454950e-01,-6.397140279118028461e-02,4.247116553584082133e-01,-6.438137211579547659e-01,-1.236127257624078268e+00,-6.313512127712781474e-01,-9.589285912934091272e-01,-1.001163906963395522e+00,-1.518228017400901519e+00,-1.616899121075208390e+00,-2.913620230846477033e-01,-7.097086488474264598e-01,1.710781634031892096e-01,-6.011128419057210071e-01,4.488306786423965078e-01,4.461948970017885485e-01,4.926352437596461242e-01,4.435478339630172240e-01,8.184865859208340089e-01,1.086190901042529688e+00,1.139266650164017403e+00,4.894050443834674913e-01,7.934067639902772640e-02,7.914212360405364910e-02,-2.610635935905188387e-01,6.287648962489710280e-01,-1.091407950233418855e+00,-7.155632310040477284e-01,-5.639422317355022862e-01,1.200502680842917141e-01,1.722204430201292047e-01,-4.126778536085855542e-01,7.310113010642926845e-02,8.060640581797949844e-01,8.028848560084659303e-01,1.113463955787803661e+00,4.014998784556819689e-01,1.045738824325977090e+00,1.915576251903893246e+00
5.960232241356854255e-01,1.774857452811640313e+00,9.176182906358250346e-02,3.069600680929969183e-01,9.424650435184191988e-01,-1.011163681067385051e-01,-3.840837598887186788e-01,-3.925364304221279355e-01,-3.025198837577854349e-01,4.667125060890565669e-01,-9.981519814765229537e-01,-1.817601128672521105e+00,-3.187119853246830892e-01,-8.255624108589266763e-01,-8.839455126351367653e-01,1.738599981901055858e-01,-2.189183411595956752e+00,3.244354041266956923e-01,-8.041250299357098896e-01,-3.318616128724967140e-01,-8.887977040830022935e-01,-2.698858528746130303e-01,7.906593624124975683e-01,-3.253680670974793410e-01,7.022391162557307664e-01,-2.788172276073004330e-01,4.375654542554548443e-01,-6.718199501287892492e-03,5.815704095521040395e-01,1.428645203923085916e+00,-3.403829054947693500e-02,7.596625961647439640e-01,1.151226125933125788e+00,2.385126576709489798e-01,8.293011962244769553e-01,1.814199912864479236e-01,5.687889964297875300e-01,2.181195958761350875e-02,-5.824182109639631788e-01,-2.102240436311921812e-01,-4.313747168841000623e-01,-1.621127269485735933e-01,-3.150621398851484178e-01,-2.025966298492699325e-01,-3.489685359660551350e-02,-8.056916699158324369e-02,1.132078407236785544e+00,1.728538231185682061e+00,7.366365514755323085e-01,1.142011889737675201e+00,1.418884637136467397e+00
-9.578833539999658253e-01,3.623708505958747050e+00,-7.292776109803007500e-01,-7.059104998478937798e-01,-1.032267536057501989e+00,7.734313043459816184e-01,6.581098657947546116e-01,1.804869440742388198e-01,9.828952540908052482e-01,1.218416930106781981e+00,9.304932053932453151e-01,1.143875277417459868e-01,5.142126381424506620e-01,1.013114109462762036e+00,3.861928116238097508e-01,4.753815946554077465e-01,2.097708279916513444e-02,2.458658224328635067e-01,-2.150808555519374998e+00,-9.544245197824415827e-01,-1.670151308393118095e+00,-1.808743843130661499e+00,-1.200894205910370216e+00,-1.634939548100009965e+00,-4.201223177711145285e-01,-5.360546725810443336e-01,-2.555849428298608839e-01,6.670271894842965121e-01,6.103203264055785393e-01,-8.079887170601584012e-01,9.099478292920676337e-01,3.362090486638405484e-01,6.905926672040548775e-01,-1.509700162532177370e-01,5.018949277673457887e-01,4.187323772244259112e-01,-7.676261356968963057e-01,9.596065578548074182e-01,-1.720707792975285866e+00,-7.393143090004626883e-01,-7.549065810694239875e-01,7.497873605352543824e-02,1.922808719165109981e-01,-6.957010793831829298e-01,-3.608359703589854349e-04,1.485328232314868657e+00,-1.408822649275249805e-01,-9.766962869027595584e-02,-2.930380268803906563e-01,6.735163541174532531e-01,1.417083348687762534e+00
-2.202154029188720052e+00,5.661208351960429042e+00,-9.452559482673827951e-01,-8.092760796925524414e-01,-6.009423369234295764e-01,-3.283108004420547954e-01,2.155734703180080647e+00,1.329187930529942552e+00,1.581090365519079777e+00,7.454946231197886464e-01,1.607793544220647464e+00,-8.462049073481475725e-01,1.106025607603094096e+00,2.175368774648770653e+00,1.039810595272846250e+00,8.843867260627722438e-01,-9.931733640277617958e-01,-2.626589734227905648e+00,-3.623022141220800130e+00,-1.499092775072606187e+00,-2.238447701724421535e+00,-5.255737393258042900e+00,-1.607784356132547332e+00,-2.822876239160101886e+00,-2.607278326252194245e-01,-1.052797691978780703e+00,-8.684791871626229565e-01,1.544686266718443557e+00,1.616295187990535176e+00,1.278946415857847574e-01,1.859000405093457653e+00,1.515167801697174244e-01,1.493353716987317226e+00,3.773335143139750492e-01,1.060393677778893373e+00,7.892824816801995436e-01,-7.352148667923030789e-01,1.795961230308180445e+00,-2.586592379359784477e+00,-1.050727583111507712e+00,-5.113756346846191070e-01,-4.558463145977587061e-02,7.204218897324322635e-01,-1.093418439167448852e+00,1.988539398953977910e-01,1.885545770707085067e+00,8.925900416412740901e-01,6.629070099649367886e-01,-1.505596077264747569e-02,1.396953171729809595e+00,3.409048548253200472e+00
5.576872074247012367e-01,-2.385117465175409013e+00,5.201116546723101308e-01,5.634749462769439443e-01,-9.608259803505693475e-03,2.756340525216417481e-01,-4.394847761440146688e-02,-2.804258130561381734e-01,3.224029418325850133e-02,-6.636513610052920953e-01,-6.065959936918008388e-01,-1.125330493312050040e+00,-3.574835338229891413e-01,-2.567101288881258325e-01,-1.428230954411652931e+00,-7.860744678354825155e-01,-6.306786404323553308e-01,-2.474159430699939544e-01,-1.217602833245116534e+00,1.507818618656422138e-01,2.799738369818722261e-01,-4.896964304605644913e-01,1.146149394455917792e+00,1.029489805240211414e-01,4.171306689017006963e-01,-6.864695108807507273e-02,-4.206905744426848726e-01,-9.924915443694991568e-01,-1.217400817134891150e-01,3.430263913871722248e-01,-1.051118425017588009e+00,-1.590066273372821304e-01,-3.254191020782476462e-01,-5.165060834498164111e-01,4.858585051446862035e-01,1.373754688363670873e-01,5.511737898258084467e-01,-7.673396957869771384e-01,-3.787691743801713251e-02,6.212111734852432399e-01,2.819366041150684898e-01,-3.508047501082197095e-01,-6.095907142734062756e-01,3.732896410541020060e-01,7.729245583725553870e-02,-6.200234299287027406e-01,-1.117278640528727440e-01,1.255896943329765370e-01,2.087007658061988680e-01,-1.754298000779143107e-01,-4.216245326811107197e-01
-9.030246346500419019e-01,4.343187839464669686e+00,-9.081160081330217348e-01,-6.740327027728744147e-01,-5.931907038426862400e-01,4.943633157979371862e-01,-3.050183961397765486e-01,9.171358894504483619e-03,3.167983062456381504e-01,2.244430845002622910e+00,3.180592943974040465e-01,8.572033052584849822e-01,4.866481551095930835e-01,1.147766331382373384e+00,1.171679450215626472e+00,1.211353918387419570e+00,4.913740807715448189e-01,1.653542346125910778e-01,1.694324947245244184e+00,-7.254362916279180062e-01,-1.544909975175142502e+00,6.725155926181447530e-01,-1.959720316744544943e+00,-8.225443957655069749e-01,-5.186387579804007109e-01,-1.985264706613746877e-01,-2.475587894093894958e-01,1.394351716349625958e+00,2.655592920139881463e-01,-2.441629717649025089e-01,1.176061442295274651e+00,5.551013052722950647e-01,5.926562055029536147e-01,6.949603986801381472e-01,-2.931166634319082309e-01,3.787564512902151515e-02,-2.752588501784515862e-01,1.485793196678538486e+00,-2.541632339837228138e-01,-8.826124830727722914e-01,-8.063478042573799520e-01,3.671650136501417028e-01,1.133263817645725702e+00,-7.252652594117887652e-01,-4.589368083418647604e-02,1.289561969456099355e+00,4.442309916192934138e-01,-9.782551686011914382e-02,-2.097144287667464524e-01,6.125140340891930268e-01,1.550493154203342439e+00
9.102689973798515632e-01,-2.246954844648111571e+00,5.646336491232453181e-01,5.217158554310090679e-01,1.138433276618403323e+00,-7.784416553684343487e-01,-2.919060631152970764e+00,-2.051940675830834948e+00,-1.052681635715212449e+00,1.550882396198140167e+00,5.505548960623480870e-01,-3.820078130556135987e-01,-8.738563612989243001e-01,-1.535307345685689606e+00,-2.525959005023048487e+00,5.925917711110055830e-01,-1.656249740545686189e+00,-4.104380149135527844e+00,-1.198070649788034236e+00,-1.792434382404997084e-01,9.532580046863390333e-01,-5.806916210622117269e-01,1.737887495888109868e+00,-1.881065091970943737e+00,8.299829575410061500e-01,1.466800476917535789e-01,1.017568060142017172e+00,-1.744586990873601806e+00,-3.279408320618509842e-02,1.339621506030270748e+00,-1.527805764977237246e-01,-5.164284575905557784e-01,1.303520049273216436e-02,1.574787610587016218e-01,-3.117360622572737938e+00,-1.205769056772945103e+00,1.112947375059032851e+00,-6.002404736930526674e-01,1.122794544257017080e+00,3.085902024832550272e-01,-4.164082618889335952e-01,-7.399508060547757005e-01,3.680141383787954301e-01,3.834744629673528249e-01,1.406083887831414692e-01,-2.188910520702142648e+00,6.611133175358437780e-03,9.176959802815711775e-01,6.092980697205114815e-01,3.831459366212167095e-02,-1.873939288041687745e-01
1.132219763900688403e-01,-4.746127346768627131e-01,3.750970263366440460e-01,2.994572749471292594e-01,1.049117164718067485e+00,-3.381408716558680916e-01,-7.156502487917653088e-01,-4.531323977742168219e-01,-3.829317781717797575e-01,-1.081255391644653924e-02,-1.841330082622656406e-01,-7.863760265982954190e-01,-7.136886312151395906e-01,-7.980502152230803947e-01,-7.391413091100591526e-01,-1.099391637549212847e-01,-1.122067216083340924e+00,-2.587483104335114859e-01,4.186765463199594584e-02,1.622700384553856234e-01,4.365999744915728398e-01,7.478354191409561924e-01,1.047963291760249716e+00,-1.174986843310078244e-01,5.773364679208180528e-01,-2.613717044442894280e-02,9.376579621497287131e-02,-5.190452250534168810e-01,1.439908480795584200e-01,9.427525157828835489e-01,-2.399666911983007189e-01,4.380358053660340922e-03,3.305986255535353635e-01,1.930065621704175616e-01,-6.790570100000966614e-01,-1.059578300760938008e-01,5.169374838806637396e-01,-3.241136174656683022e-01,1.005431895879056459e-01,1.167231912188329696e-01,1.627213300165089235e-02,-2.427050978703796380e-01,-8.476510576406919018e-02,2.194433233206886658e-01,-7.005609568547319088e-02,-6.972599261023429973e-01,3.960805975331475048e-01,8.972083790547056292e-01,5.245394526729424411e-01,2.093469064339756325e-01,3.554466671968356528e-01
7.383749033513924420e-01,-3.382861099321929466e+00,6.968007268283838984e-01,4.186201039832353477e-01,3.725766021825726582e-01,-7.662071703134937239e-02,4.614216452603260576e-02,-9.875616945618118092e-02,-2.043917176663539170e-01,-1.326690309610918939e-01,-2.744924117908828162e-02,-3.089350960563754245e-01,3.018430122189864461e-03,-9.321302882099526121e-02,-7.434372796640260628e-01,-5.420654519415867290e-01,1.808784097013293735e-01,-3.577138650304337864e-01,-2.345938045871075739e-01,8.242813286992677346e-01,8.667667011034912994e-01,-3.261511128371564761e-01,1.263438297990443937e+00,7.135767723620092262e-01,1.809887576823034083e-01,-8.196381390058286864e-02,-4.237277100197250346e-01,-4.989254847117862157e-01,-2.704259163210511185e-01,1.664761162413438134e-01,-8.713037441806971151e-01,-7.706080981774396932e-01,-7.235822366943038819e-01,-3.522759919685057306e-01,-4.067703728195495860e-02,-5.507976420845304283e-02,7.809547610421460062e-01,-8.399247448021958107e-01,2.706376015104258737e-01,7.081193975930910600e-01,8.681961318718265375e-01,-3.549181099589533983e-01,-4.203753688705155200e-01,6.256195219702956889e-01,-2.120255393974418423e-02,-6.463455927879749874e-01,-4.549591415902917713e-01,-3.522164695020046365e-01,3.297752426007002219e-02,-6.001846199359661682e-01,-1.156840969808147435e+00
-5.378238105342729725e-01,2.103866652060054410e+00,-4.915533187529692039e-01,-4.758585634264225761e-01,-1.004993584851463728e+00,1.370270784503035966e-01,1.235570677991341348e+00,1.296966978401787429e+00,4.577037311316789481e-01,-1.653082998145814220e-01,-1.493735130727938398e-01,8.501888304113492945e-01,1.539409026077684262e+00,9.829746728742320139e-01,1.814295607409840194e+00,-6.131488144797954398e-02,1.166759990951583781e+00,7.432972485820892317e-01,3.084604994627831998e-01,4.614698702829759212e-03,-9.487184815515297132e-01,-6.599935396889583528e-01,-1.339377353631919565e+00,8.144036153632502328e-01,-7.943038369757038364e-01,-1.326908056131337610e-01,-6.543627305267835093e-03,1.067098213746847657e+00,-1.042716867070560549e-01,-1.204561620391069177e+00,5.629482900835049985e-01,3.095454490246381529e-01,-3.698885518159679940e-03,9.831778278039986219e-02,2.020225661550259399e+00,4.141238257704311643e-01,-8.432542872258765865e-01,5.534878279253738764e-01,-4.694810033830767448e-01,-3.506644787672176244e-01,-8.324724129283536667e-02,3.217083714748448231e-01,-6.138986944406056578e-02,-2.524788444879143556e-01,2.320723506980553255e-02,1.334998473152083642e+00,1.982124842423012984e-02,-6.310548551611605550e-01,-3.711114043112157534e-01,7.099575178629892458e-02,2.354547630216511367e-01
3.981544730430799373e-01,-4.607970433864556625e-01,3.242260369880366477e-01,2.270897268581349437e-01,-8.189036695536208721e-02,1.184748913126786318e-01,-2.256168337789086764e-01,-3.574691206639272756e-01,-1.809286348043076254e-01,-4.769770411510335650e-01,-1.024394243590363573e-01,-1.075366211856536580e+00,-4.807808527801181175e-01,-3.125058484597335595e-01,-9.229345995382569612e-01,-4.930615648896014003e-01,-1.528749425368182369e+00,2.127086815122428420e-01,-1.020115645006251626e+00,-1.249079381884308226e-01,-2.475150442208855217e-01,-2.704773736103337489e-01,8.964263981871228859e-01,-1.966123301018309413e-03,5.898458504412654735e-01,-2.133666811623435577e-01,-3.366153660636142519e-01,-5.161970743604267220e-01,4.295979067207275626e-01,9.537090738885314334e-01,-2.031454837004564584e-01,3.234674332739555513e-01,3.041410178602068637e-01,9.588228307940963036e-02,4.482585086648036565e-01,2.519141260017583595e-02,5.161946021345271696e-01,-3.382761475477034652e-01,-5.054381032273112806e-02,2.018455337814909767e-01,9.164676573883254185e-02,-1.891208198824906039e-01,-2.156759580414683852e-01,3.175079444449694505e-02,1.483563630511617881e-01,-3.481553961762309801e-01,5.389933348013479231e-01,9.974878794872615861e-01,3.473203631006753778e-01,5.178388470402192079e-01,7.207652846807731661e-01
7.394281677411426168e-01,-2.711664953618434293e+00,4.724819524547994587e-01,3.282861704023648519e-01,6.354659279551518880e-01,2.238362599749226522e-01,-6.115226868246920189e-02,-2.754673988814045904e-01,-1.883461018929240838e-01,-3.341321027168651647e-01,-1.494005945579720551e-01,3.083790600288849881e-01,-2.070288196832241467e-02,-2.191280131598222769e-01,-2.193632430094482888e-01,-2.775025063287829552e-02,7.087762896990535966e-01,6.419903248051300748e-02,6.794308933723686161e-01,9.001668678207561669e-01,1.124009425044097954e+00,1.563075590758821409e+00,6.350517066294049107e-01,8.837345960995421912e-01,-9.231891589175450497e-02,2.677092223808429927e-01,4.109513866546567196e-02,-4.116785151292795542e-01,-4.197151177621046836e-01,-1.265287955193838132e-01,-7.014645861906332325e-01,-6.427442906266033207e-01,-7.064032284763323011e-01,-3.893557430208641895e-02,-1.329584844835688950e-01,-2.828164040130877743e-01,1.603156741574939259e-01,-5.957704335368942949e-01,1.051790983482426833e+00,5.847104778694434124e-01,5.963786742842717148e-01,-5.499853122807603356e-02,-1.389642231827648844e-01,5.170723984099614423e-01,-1.138472474384387145e-01,-7.146899904756172095e-01,-4.621999862804743731e-01,-6.780080048953432970e-01,-1.229640974341635745e-01,-6.987938469534881181e-01,-1.446160063579100319e+00
-5.136451466664904153e-01,2.684228139256092049e+00,-3.248643241120984793e-01,-3.762969451414777122e-01,5.810521817364526775e-01,6.412498328064973607e-02,-4.489533994261292738e-01,-2.986518043550754481e-02,-2.025930630748136729e-01,-1.103880430820519953e-01,-3.100949451660139355e-01,2.586289572966040118e-01,2.367939776780792482e-01,-6.080354205519706845e-01,9.720439705057366542e-01,5.827918629572464981e-01,-8.560333977028461439e-02,3.316554031355329335e-01,7.844635271103219676e-01,-2.293197422652953343e-01,-2.297439688958112791e-01,1.026893048959318877e+00,-7.168256209131526058e-01,1.004593292975973079e-01,-1.772732092297530093e-01,1.027910567931555469e-01,4.155579857567571755e-01,4.220398438435579713e-01,1.445291299708309218e-01,1.109656918433861265e-02,6.734398292360699312e-01,5.003888673033867196e-01,6.076195046039706282e-01,4.327108182619062715e-01,-3.815718431327611015e-01,-2.284591222035933511e-01,-3.989791201623403838e-01,5.587535991992301776e-01,-4.969032599193699135e-02,-5.824727238704408006e-01,-4.544593012091323048e-01,2.293441141086241530e-01,3.692120641571831063e-01,-5.013107565320551462e-01,-8.743925822779656520e-02,1.551141659653560989e-01,3.306709044085033300e-01,3.492134078374495298e-01,3.495628131074898521e-03,3.666606506581460700e-01,5.414449781818055918e-01
2.832689525473311432e-01,1.861165091849068087e+00,1.173096340862684883e-01,1.064423921738975598e-01,8.016965593603533335e-01,-2.145891934526546474e-01,-6.278038942182199156e-01,-2.110212499414020892e-01,-2.958935640842092485e-01,2.081991560358519011e-01,-3.344317851415031240e-01,-9.578691237201807374e-01,-4.788113669880432466e-02,-5.101440832508588041e-01,-3.196453705375029708e-01,1.739145954895766621e-01,-1.460452865894593666e+00,4.521992590720613214e-01,-3.158499800297671634e-01,-1.830703319118308914e-01,-4.500667036761583639e-01,-2.707040021883538525e-02,1.926127262415499308e-01,-1.736035853674922774e-02,5.089246825518206618e-01,2.333953679773182258e-02,1.833495207261968407e-01,1.552081440401680279e-01,4.949770477997810225e-01,1.059274744518988953e+00,3.824118583465531684e-01,8.164684714692108658e-01,1.022757415090851607e+00,3.288795951916456128e-01,5.980197115901695337e-01,-5.096939051131933046e-02,4.651601486794467166e-01,5.950292015434489185e-02,-3.094218041032670286e-01,-3.416739819785262755e-01,-4.282309242160945995e-01,-1.656032118292019226e-02,-5.369045238125681740e-02,-2.382438217100353584e-01,-3.654492816005141392e-02,-1.948354558374351120e-01,8.996115254625645097e-01,1.410178366891980284e+00,4.031837070267866308e-01,8.335654655196522711e-01,1.174237625665480733e+00
-2.850095976386924912e-01,1.815848760891136449e+00,-3.110208749770272396e-01,-3.384553964176990060e-01,1.947903955429196587e-01,3.167247095543550967e-02,-1.271912024052895551e-01,-4.524742624555829797e-03,3.991379978562753505e-02,1.679044036648988103e-01,-8.571932129676505807e-02,2.904921379451579910e-01,4.319820166733753797e-03,-2.013962520106673537e-01,5.946248537325157235e-01,4.448517841858343758e-01,-9.551489057919523851e-02,1.983497736723554006e-01,4.314374804341549741e-01,-1.453861891278767082e-01,-4.449838012064350479e-01,3.152410796384961800e-01,-6.514119014009429609e-01,-8.859390452903825874e-02,-8.616568547190575633e-02,9.691209951538277967e-03,2.796633425185600652e-01,3.522516001055757684e-01,1.327678359515575279e-01,-2.599439759520116508e-02,3.997215866063489331e-01,3.975300070756392912e-01,4.949662382070901256e-01,2.278895520596629365e-01,-3.458517318802826201e-01,-8.955940982733931466e-02,-4.020599500573250884e-01,3.705461687691000150e-01,-4.987884624528710759e-02,-4.229548339588869998e-01,-4.348411565576226212e-01,2.387065568742678667e-01,1.999096963378022007e-01,-1.973767513209978841e-01,-1.097642367900101834e-01,3.411941368877134950e-01,2.477920591884114343e-01,1.962617474804661255e-01,-1.343896334676214152e-02,3.322537825236850373e-01,3.739002403831810373e-01
-3.627934154653632282e-02,-5.286813912336971732e-01,1.255930414377018356e-01,8.100285519248436039e-02,2.947242214680337313e-01,-9.888777351728762766e-02,-3.312943651159321323e-01,-2.591117948732236664e-01,-1.802584327996423208e-01,-2.611569883781391516e-02,-1.123320341422043844e-01,-3.437243042718821640e-01,-2.133478647774853798e-01,-2.869842658712678518e-01,-2.792785765877223159e-01,-1.170532217415306275e-01,-4.799743673334905814e-01,-1.836101704283991110e-01,-1.258032895140839269e-01,2.111640466336259514e-01,2.857962140185686950e-01,1.323590019821568875e-01,3.734980496592789634e-01,4.021020345607297791e-02,2.078041521153198012e-01,-9.136787834870035985e-02,-5.742868719262585880e-02,-2.858761962326049622e-01,-6.491843253791618196e-02,2.597201912078591635e-01,-1.534943815447784299e-01,-1.001896467742443564e-01,2.285243288753519009e-02,4.105161144343065678e-03,9.717792895131312225e-02,-1.503187069187985336e-01,3.081215747732184429e-01,-2.465918629807360429e-01,-3.669482934336626423e-02,1.566229432328767046e-01,1.097839389555270717e-01,-1.585564243241440185e-01,-1.712602423475898319e-02,1.930340519033200697e-01,-1.127453070365356906e-02,-3.402877675546087666e-01,1.898569283182853229e-01,2.600982495499017388e-01,2.279984877412383759e-01,8.614842454129868765e-02,2.936054359006882823e-03
-2.798343285064587849e-01,-1.228537648831465434e+00,-2.120513085221388538e-02,-2.767100208008466677e-01,4.730117445014641042e-01,-4.926661312340794296e-01,3.097151861263380268e-01,1.950965507059831128e-01,1.753396760928212922e-02,2.662896757354845878e+00,1.184973336282581613e+00,1.601819668860369195e+00,3.199091285860496958e-01,3.019115103249908061e-01,4.595851460487952456e-01,5.265209698281849704e-01,2.282987465799876325e+00,-1.251490148533421110e+00,2.386811560325659443e+00,6.529951625935268567e-01,1.042088587465700877e+00,7.877088591541081541e-01,-8.185332861197976984e-01,1.536079683658822803e-01,-7.239289332931295728e-01,2.867589073442337183e-02,3.781275930743895758e-02,2.746987942278886208e-01,-6.839902973849424361e-01,-1.429427526279933858e+00,2.301477141205914706e-02,-1.009281175819787713e+00,-1.055586716141656556e+00,-1.680905653047036138e-02,-1.031985114173876728e+00,-3.431909612064862336e-01,7.459428433330188291e-02,-1.286187542964731534e-01,5.875578824467851957e-01,8.738797474306032875e-02,4.151310746637074112e-01,1.444455097100002805e-01,1.438834594653595755e-01,1.374868860197080433e-01,3.526754258653475721e-02,-1.150406003707164088e-01,-1.045447794173004930e+00,-1.531603629990568649e+00,-5.950303633711526707e-01,-1.083334627670518469e+00,-1.730939697373372832e+00
